{"learner":{"attributes":{"scikit_learn":"{\"_estimator_type\": \"classifier\"}"},"feature_names":["order_total","number_of_items","average_item_price","is_new_user","account_age_days","shipping_distance","billing_shipping_match","order_hour","is_night_order","orders_in_last_hour"],"feature_types":["float","float","float","float","float","float","float","float","float","float"],"gradient_booster":{"model":{"gbtree_model_param":{"num_parallel_tree":"1","num_trees":"200"},"iteration_indptr":[0,1,2,3,4,5,6,7,8,9,10,11,12,13,14,15,16,17,18,19,20,21,22,23,24,25,26,27,28,29,30,31,32,33,34,35,36,37,38,39,40,41,42,43,44,45,46,47,48,49,50,51,52,53,54,55,56,57,58,59,60,61,62,63,64,65,66,67,68,69,70,71,72,73,74,75,76,77,78,79,80,81,82,83,84,85,86,87,88,89,90,91,92,93,94,95,96,97,98,99,100,101,102,103,104,105,106,107,108,109,110,111,112,113,114,115,116,117,118,119,120,121,122,123,124,125,126,127,128,129,130,131,132,133,134,135,136,137,138,139,140,141,142,143,144,145,146,147,148,149,150,151,152,153,154,155,156,157,158,159,160,161,162,163,164,165,166,167,168,169,170,171,172,173,174,175,176,177,178,179,180,181,182,183,184,185,186,187,188,189,190,191,192,193,194,195,196,197,198,199,200],"tree_info":[0,0,0,0,0,0,0,0,0,0,0,0,0,0,0,0,0,0,0,0,0,0,0,0,0,0,0,0,0,0,0,0,0,0,0,0,0,0,0,0,0,0,0,0,0,0,0,0,0,0,0,0,0,0,0,0,0,0,0,0,0,0,0,0,0,0,0,0,0,0,0,0,0,0,0,0,0,0,0,0,0,0,0,0,0,0,0,0,0,0,0,0,0,0,0,0,0,0,0,0,0,0,0,0,0,0,0,0,0,0,0,0,0,0,0,0,0,0,0,0,0,0,0,0,0,0,0,0,0,0,0,0,0,0,0,0,0,0,0,0,0,0,0,0,0,0,0,0,0,0,0,0,0,0,0,0,0,0,0,0,0,0,0,0,0,0,0,0,0,0,0,0,0,0,0,0,0,0,0,0,0,0,0,0,0,0,0,0,0,0,0,0,0,0,0,0,0,0,0,0],"trees":[{"base_weights":[-0E0,-1.9981265E-1,1.9173033E0,1.8378378E-1,1.9906302E-1,1.9223301E-1,-1.9069767E-1],"categories":[],"categories_nodes":[],"categories_segments":[],"categories_sizes":[],"default_left":[0,0,0,0,0,0,0],"id":0,"left_children":[1,-1,3,5,-1,-1,-1],"loss_changes":[8.351612E3,0E0,1.4104712E2,1.7177922E2,0E0,0E0,0E0],"parents":[2147483647,0,0,2,2,3,3],"right_children":[2,-1,4,6,-1,-1,-1],"split_conditions":[2.4456E2,-1.9981265E-1,2.9167E2,5.76E0,1.9906302E-1,1.9223301E-1,-1.9069767E-1],"split_indices":[0,0,0,2,0,0,0],"split_type":[0,0,0,0,0,0,0],"sum_hessian":[2.178E3,1.0665E3,1.1115E3,4.525E1,1.06625E3,2.475E1,2.05E1],"tree_param":{"num_deleted":"0","num_feature":"10","num_nodes":"7","size_leaf_vector":"1"}},{"base_weights":[-2.0057646E-6,-1.8171632E-1,1.743475E0,1.6698827E-1,1.8102062E-1,1.7536053E-1,-1.7406963E-1],"categories":[],"categories_nodes":[],"categories_segments":[],"categories_sizes":[],"default_left":[0,0,0,0,0,0,0],"id":1,"left_children":[1,-1,3,5,-1,-1,-1],"loss_changes":[6.838575E3,0E0,1.1558594E2,1.4179182E2,0E0,0E0,0E0],"parents":[2147483647,0,0,2,2,3,3],"right_children":[2,-1,4,6,-1,-1,-1],"split_conditions":[2.4456E2,-1.8171632E-1,2.9167E2,5.76E0,1.8102062E-1,1.7536053E-1,-1.7406963E-1],"split_indices":[0,0,0,2,0,0,0],"split_type":[0,0,0,0,0,0,0],"sum_hessian":[2.1565195E3,1.0559254E3,1.100594E3,4.48375E1,1.0557566E3,2.452275E1,2.0314749E1],"tree_param":{"num_deleted":"0","num_feature":"10","num_nodes":"7","size_leaf_vector":"1"}},{"base_weights":[-9.474381E-6,-1.6811821E-1,1.612558E0,1.5411596E-1,1.6743994E-1,1.6245192E-1,-1.6130275E-1],"categories":[],"categories_nodes":[],"categories_segments":[],"categories_sizes":[],"default_left":[0,0,0,0,0,0,0],"id":2,"left_children":[1,-1,3,5,-1,-1,-1],"loss_changes":[5.701315E3,0E0,9.6555176E1,1.189392E2,0E0,0E0,0E0],"parents":[2147483647,0,0,2,2,3,3],"right_children":[2,-1,4,6,-1,-1,-1],"split_conditions":[2.4456E2,-1.6811821E-1,2.9167E2,5.76E0,1.6743994E-1,1.6245192E-1,-1.6130275E-1],"split_indices":[0,0,0,2,0,0,0],"split_type":[0,0,0,0,0,0,0],"sum_hessian":[2.1010269E3,1.0286115E3,1.0724153E3,4.376532E1,1.02865E3,2.3932388E1,1.9832933E1],"tree_param":{"num_deleted":"0","num_feature":"10","num_nodes":"7","size_leaf_vector":"1"}},{"base_weights":[-2.0355252E-5,-1.5755618E-1,1.5106256E0,1.4392528E-1,1.5687166E-1,1.5226345E-1,-1.5119477E-1],"categories":[],"categories_nodes":[],"categories_segments":[],"categories_sizes":[],"default_left":[0,0,0,0,0,0,0],"id":3,"left_children":[1,-1,3,5,-1,-1,-1],"loss_changes":[4.8178677E3,0E0,8.181885E1,1.01005104E2,0E0,0E0,0E0],"parents":[2147483647,0,0,2,2,3,3],"right_children":[2,-1,4,6,-1,-1,-1],"split_conditions":[2.4456E2,-1.5755618E-1,2.9167E2,5.76E0,1.5687166E-1,1.5226345E-1,-1.5119477E-1],"split_indices":[0,0,0,2,0,0,0],"split_type":[0,0,0,0,0,0,0],"sum_hessian":[2.0222416E3,9.898382E2,1.0324033E3,4.223451E1,9.901688E2,2.3089907E1,1.9144602E1],"tree_param":{"num_deleted":"0","num_feature":"10","num_nodes":"7","size_leaf_vector":"1"}},{"base_weights":[-3.351912E-5,-1.4914404E-1,1.4292203E0,1.3564678E-1,1.4843628E-1,1.4402187E-1,-1.4299421E-1],"categories":[],"categories_nodes":[],"categories_segments":[],"categories_sizes":[],"default_left":[0,0,0,0,0,0,0],"id":4,"left_children":[1,-1,3,5,-1,-1,-1],"loss_changes":[4.11426E3,0E0,7.0102295E1,8.660956E1,0E0,0E0,0E0],"parents":[2147483647,0,0,2,2,3,3],"right_children":[2,-1,4,6,-1,-1,-1],"split_conditions":[2.4456E2,-1.4914404E-1,2.9167E2,5.76E0,1.4843628E-1,1.4402187E-1,-1.4299421E-1],"split_indices":[0,0,0,2,0,0,0],"split_type":[0,0,0,0,0,0,0],"sum_hessian":[1.9281284E3,9.435272E2,9.8460126E2,4.0396965E1,9.442043E2,2.2079046E1,1.831792E1],"tree_param":{"num_deleted":"0","num_feature":"10","num_nodes":"7","size_leaf_vector":"1"}},{"base_weights":[-4.8421032E-5,-1.4231162E-1,1.3628894E0,1.2877594E-1,1.4156705E-1,1.3721947E-1,-1.362059E-1],"categories":[],"categories_nodes":[],"categories_segments":[],"categories_sizes":[],"default_left":[0,0,0,0,0,0,0],"id":5,"left_children":[1,-1,3,5,-1,-1,-1],"loss_changes":[3.5428638E3,0E0,6.0593384E1,7.484623E1,0E0,0E0,0E0],"parents":[2147483647,0,0,2,2,3,3],"right_children":[2,-1,4,6,-1,-1,-1],"split_conditions":[2.4456E2,-1.4231162E-1,2.9167E2,5.76E0,1.4156705E-1,1.3721947E-1,-1.362059E-1],"split_indices":[0,0,0,2,0,0,0],"split_type":[0,0,0,0,0,0,0],"sum_hessian":[1.8246395E3,8.9260767E2,9.320318E2,3.836773E1,8.9366406E2,2.0963156E1,1.7404573E1],"tree_param":{"num_deleted":"0","num_feature":"10","num_nodes":"7","size_leaf_vector":"1"}},{"base_weights":[-6.541965E-5,-1.3667445E-1,1.3079498E0,1.2296745E-1,1.3588141E-1,1.3150841E-1,-1.3048935E-1],"categories":[],"categories_nodes":[],"categories_segments":[],"categories_sizes":[],"default_left":[0,0,0,0,0,0,0],"id":6,"left_children":[1,-1,3,5,-1,-1,-1],"loss_changes":[3.0715503E3,0E0,5.2749756E1,6.509432E1,0E0,0E0,0E0],"parents":[2147483647,0,0,2,2,3,3],"right_children":[2,-1,4,6,-1,-1,-1],"split_conditions":[2.4456E2,-1.3667445E-1,2.9167E2,5.76E0,1.3588141E-1,1.3150841E-1,-1.3048935E-1],"split_indices":[0,0,0,2,0,0,0],"split_type":[0,0,0,0,0,0,0],"sum_hessian":[1.7162179E3,8.392662E2,8.769517E2,3.6233665E1,8.407181E2,1.979002E1,1.6443644E1],"tree_param":{"num_deleted":"0","num_feature":"10","num_nodes":"7","size_leaf_vector":"1"}},{"base_weights":[-8.400732E-5,-1.3196342E-1,1.2618191E0,1.1797682E-1,1.3111113E-1,1.2664166E-1,-1.2560223E-1],"categories":[],"categories_nodes":[],"categories_segments":[],"categories_sizes":[],"default_left":[0,0,0,0,0,0,0],"id":7,"left_children":[1,-1,3,5,-1,-1,-1],"loss_changes":[2.6778242E3,0E0,4.619397E1,5.691368E1,0E0,0E0,0E0],"parents":[2147483647,0,0,2,2,3,3],"right_children":[2,-1,4,6,-1,-1,-1],"split_conditions":[2.4456E2,-1.3196342E-1,2.9167E2,5.76E0,1.3111113E-1,1.2664166E-1,-1.2560223E-1],"split_indices":[0,0,0,2,0,0,0],"split_type":[0,0,0,0,0,0,0],"sum_hessian":[1.6061633E3,7.851255E2,8.210379E2,3.4059956E1,7.869779E2,1.8595469E1,1.5464487E1],"tree_param":{"num_deleted":"0","num_feature":"10","num_nodes":"7","size_leaf_vector":"1"}},{"base_weights":[-1.0451711E-4,-1.279842E-1,1.2226286E0,1.13624945E-1,1.270623E-1,1.2243861E-1,-1.2136704E-1],"categories":[],"categories_nodes":[],"categories_segments":[],"categories_sizes":[],"default_left":[0,0,0,0,0,0,0],"id":8,"left_children":[1,-1,3,5,-1,-1,-1],"loss_changes":[2.345442E3,0E0,4.065454E1,4.998328E1,0E0,0E0,0E0],"parents":[2147483647,0,0,2,2,3,3],"right_children":[2,-1,4,6,-1,-1,-1],"split_conditions":[2.4456E2,-1.279842E-1,2.9167E2,5.76E0,1.270623E-1,1.2243861E-1,-1.2136704E-1],"split_indices":[0,0,0,2,0,0,0],"split_type":[0,0,0,0,0,0,0],"sum_hessian":[1.4968981E3,7.313772E2,7.6552094E2,3.1894943E1,7.3362604E2,1.7406044E1,1.44889E1],"tree_param":{"num_deleted":"0","num_feature":"10","num_nodes":"7","size_leaf_vector":"1"}},{"base_weights":[-1.2703934E-4,-1.2459282E-1,1.1889904E0,1.0977749E-1,1.2359089E-1,1.1876386E-1,-1.1765044E-1],"categories":[],"categories_nodes":[],"categories_segments":[],"categories_sizes":[],"default_left":[0,0,0,0,0,0,0],"id":9,"left_children":[1,-1,3,5,-1,-1,-1],"loss_changes":[2.0623667E3,0E0,3.5931152E1,4.406322E1,0E0,0E0,0E0],"parents":[2147483647,0,0,2,2,3,3],"right_children":[2,-1,4,6,-1,-1,-1],"split_conditions":[2.4456E2,-1.2459282E-1,2.9167E2,5.76E0,1.2359089E-1,1.1876386E-1,-1.1765044E-1],"split_indices":[0,0,0,2,0,0,0],"split_type":[0,0,0,0,0,0,0],"sum_hessian":[1.3901707E3,6.788808E2,7.112899E2,2.9773901E1,6.81516E2,1.6241096E1,1.35328045E1],"tree_param":{"num_deleted":"0","num_feature":"10","num_nodes":"7","size_leaf_vector":"1"}},{"base_weights":[-1.5155849E-4,-1.21680275E-1,1.1598502E0,1.0633239E-1,1.2058753E-1,1.155137E-1,-1.1435016E-1],"categories":[],"categories_nodes":[],"categories_segments":[],"categories_sizes":[],"default_left":[0,0,0,0,0,0,0],"id":10,"left_children":[1,-1,3,5,-1,-1,-1],"loss_changes":[1.8194865E3,0E0,3.187262E1,3.8970577E1,0E0,0E0,0E0],"parents":[2147483647,0,0,2,2,3,3],"right_children":[2,-1,4,6,-1,-1,-1],"split_conditions":[2.4456E2,-1.21680275E-1,2.9167E2,5.76E0,1.2058753E-1,1.155137E-1,-1.1435016E-1],"split_indices":[0,0,0,2,0,0,0],"split_type":[0,0,0,0,0,0,0],"sum_hessian":[1.2872113E3,6.2824097E2,6.589704E2,2.7721977E1,6.312484E2,1.511441E1,1.2607566E1],"tree_param":{"num_deleted":"0","num_feature":"10","num_nodes":"7","size_leaf_vector":"1"}},{"base_weights":[-1.7891807E-4,-1.1916238E-1,1.134391E0,1.03209466E-1,1.1796751E-1,1.126071E-1,-1.1138635E-1],"categories":[],"categories_nodes":[],"categories_segments":[],"categories_sizes":[],"default_left":[0,0,0,0,0,0,0],"id":11,"left_children":[1,-1,3,5,-1,-1,-1],"loss_changes":[1.6097661E3,0E0,2.8362244E1,3.4563297E1,0E0,0E0,0E0],"parents":[2147483647,0,0,2,2,3,3],"right_children":[2,-1,4,6,-1,-1,-1],"split_conditions":[2.4456E2,-1.1916238E-1,2.9167E2,5.76E0,1.1796751E-1,1.126071E-1,-1.1138635E-1],"split_indices":[0,0,0,2,0,0,0],"split_type":[0,0,0,0,0,0,0],"sum_hessian":[1.1888514E3,5.7986646E2,6.08985E2,2.5756435E1,5.832286E2,1.4035439E1,1.1720997E1],"tree_param":{"num_deleted":"0","num_feature":"10","num_nodes":"7","size_leaf_vector":"1"}},{"base_weights":[-2.0836641E-4,-1.16973124E-1,1.1119683E0,1.0034485E-1,1.156641E-1,1.099798E-1,-1.0869552E-1],"categories":[],"categories_nodes":[],"categories_segments":[],"categories_sizes":[],"default_left":[0,0,0,0,0,0,0],"id":12,"left_children":[1,-1,3,5,-1,-1,-1],"loss_changes":[1.4276904E3,0E0,2.5309021E1,3.0729364E1,0E0,0E0,0E0],"parents":[2147483647,0,0,2,2,3,3],"right_children":[2,-1,4,6,-1,-1,-1],"split_conditions":[2.4456E2,-1.16973124E-1,2.9167E2,5.76E0,1.156641E-1,1.099798E-1,-1.0869552E-1],"split_indices":[0,0,0,2,0,0,0],"split_type":[0,0,0,0,0,0,0],"sum_hessian":[1.0956188E3,5.34016E2,5.616027E2,2.3888481E1,5.3771423E2,1.3010292E1,1.0878188E1],"tree_param":{"num_deleted":"0","num_feature":"10","num_nodes":"7","size_leaf_vector":"1"}},{"base_weights":[-2.4088641E-4,-1.1505989E-1,1.092066E0,9.76877E-2,1.136238E-1,1.0758E-1,-1.062267E-1],"categories":[],"categories_nodes":[],"categories_segments":[],"categories_sizes":[],"default_left":[0,0,0,0,0,0,0],"id":13,"left_children":[1,-1,3,5,-1,-1,-1],"loss_changes":[1.2688677E3,0E0,2.2640259E1,2.7379246E1,0E0,0E0,0E0],"parents":[2147483647,0,0,2,2,3,3],"right_children":[2,-1,4,6,-1,-1,-1],"split_conditions":[2.4456E2,-1.1505989E-1,2.9167E2,5.76E0,1.136238E-1,1.0758E-1,-1.062267E-1],"split_indices":[0,0,0,2,0,0,0],"split_type":[0,0,0,0,0,0,0],"sum_hessian":[1.0078075E3,4.9083426E2,5.169732E2,2.2124672E1,4.9484854E2,1.2042547E1,1.0082125E1],"tree_param":{"num_deleted":"0","num_feature":"10","num_nodes":"7","size_leaf_vector":"1"}},{"base_weights":[-2.766959E-4,-1.1338027E-1,1.074264E0,9.519663E-2,1.1180315E-1,1.0536551E-1,-1.0393828E-1],"categories":[],"categories_nodes":[],"categories_segments":[],"categories_sizes":[],"default_left":[0,0,0,0,0,0,0],"id":14,"left_children":[1,-1,3,5,-1,-1,-1],"loss_changes":[1.1297604E3,0E0,2.0297607E1,2.4440504E1,0E0,0E0,0E0],"parents":[2147483647,0,0,2,2,3,3],"right_children":[2,-1,4,6,-1,-1,-1],"split_conditions":[2.4456E2,-1.1338027E-1,2.9167E2,5.76E0,1.1180315E-1,1.0536551E-1,-1.0393828E-1],"split_indices":[0,0,0,2,0,0,0],"split_type":[0,0,0,0,0,0,0],"sum_hessian":[9.2553864E2,4.5038028E2,4.7515833E2,2.0468033E1,4.5469028E2,1.1133833E1,9.3342E0],"tree_param":{"num_deleted":"0","num_feature":"10","num_nodes":"7","size_leaf_vector":"1"}},{"base_weights":[-3.1578596E-4,-1.1189964E-1,1.0582169E0,9.28372E-2,1.1016641E-1,1.0330149E-1,-1.0179613E-1],"categories":[],"categories_nodes":[],"categories_segments":[],"categories_sizes":[],"default_left":[0,0,0,0,0,0,0],"id":15,"left_children":[1,-1,3,5,-1,-1,-1],"loss_changes":[1.00748615E3,0E0,1.8233246E1,2.1853859E1,0E0,0E0,0E0],"parents":[2147483647,0,0,2,2,3,3],"right_children":[2,-1,4,6,-1,-1,-1],"split_conditions":[2.4456E2,-1.1189964E-1,2.9167E2,5.76E0,1.1016641E-1,1.0330149E-1,-1.0179613E-1],"split_indices":[0,0,0,2,0,0,0],"split_type":[0,0,0,0,0,0,0],"sum_hessian":[8.488023E2,4.1264886E2,4.3615347E2,1.8918924E1,4.1723456E2,1.028432E1,8.6346035E0],"tree_param":{"num_deleted":"0","num_feature":"10","num_nodes":"7","size_leaf_vector":"1"}},{"base_weights":[-3.5930352E-4,-1.10589445E-1,1.0436352E0,9.058154E-2,1.0868368E-1,1.0135909E-1,-9.977195E-2],"categories":[],"categories_nodes":[],"categories_segments":[],"categories_sizes":[],"default_left":[0,0,0,0,0,0,0],"id":16,"left_children":[1,-1,3,5,-1,-1,-1],"loss_changes":[8.996698E2,0E0,1.6408203E1,1.9570387E1,0E0,0E0,0E0],"parents":[2147483647,0,0,2,2,3,3],"right_children":[2,-1,4,6,-1,-1,-1],"split_conditions":[2.4456E2,-1.10589445E-1,2.9167E2,5.76E0,1.0868368E-1,1.0135909E-1,-9.977195E-2],"split_indices":[0,0,0,2,0,0,0],"split_type":[0,0,0,0,0,0,0],"sum_hessian":[7.774932E2,3.7758807E2,3.9990515E2,1.7475744E1,3.8242938E2,9.493105E0,7.98264E0],"tree_param":{"num_deleted":"0","num_feature":"10","num_nodes":"7","size_leaf_vector":"1"}},{"base_weights":[-4.066661E-4,-1.09425955E-1,1.0302756E0,8.840624E-2,1.0732981E-1,9.9514045E-2,-9.784219E-2],"categories":[],"categories_nodes":[],"categories_segments":[],"categories_sizes":[],"default_left":[0,0,0,0,0,0,0],"id":17,"left_children":[1,-1,3,5,-1,-1,-1],"loss_changes":[8.043413E2,0E0,1.4789703E1,1.7549314E1,0E0,0E0,0E0],"parents":[2147483647,0,0,2,2,3,3],"right_children":[2,-1,4,6,-1,-1,-1],"split_conditions":[2.4456E2,-1.09425955E-1,2.9167E2,5.76E0,1.0732981E-1,9.9514045E-2,-9.784219E-2],"split_indices":[0,0,0,2,0,0,0],"split_type":[0,0,0,0,0,0,0],"sum_hessian":[7.114388E2,3.4511255E2,3.663262E2,1.6135471E1,3.5019073E2,8.758509E0,7.3769627E0],"tree_param":{"num_deleted":"0","num_feature":"10","num_nodes":"7","size_leaf_vector":"1"}},{"base_weights":[-4.5881383E-4,-1.0838918E-1,1.0179291E0,8.629167E-2,1.0608324E-1,9.7745985E-2,-9.598719E-2],"categories":[],"categories_nodes":[],"categories_segments":[],"categories_sizes":[],"default_left":[0,0,0,0,0,0,0],"id":18,"left_children":[1,-1,3,5,-1,-1,-1],"loss_changes":[7.1984937E2,0E0,1.3350647E1,1.5756407E1,0E0,0E0,0E0],"parents":[2147483647,0,0,2,2,3,3],"right_children":[2,-1,4,6,-1,-1,-1],"split_conditions":[2.4456E2,-1.0838918E-1,2.9167E2,5.76E0,1.0608324E-1,9.7745985E-2,-9.598719E-2],"split_indices":[0,0,0,2,0,0,0],"split_type":[0,0,0,0,0,0,0],"sum_hessian":[6.504187E2,3.1511392E2,3.3530475E2,1.4894075E1,3.2041068E2,8.078298E0,6.8157773E0],"tree_param":{"num_deleted":"0","num_feature":"10","num_nodes":"7","size_leaf_vector":"1"}},{"base_weights":[-5.163788E-4,-1.0746223E-1,1.0064154E0,8.422245E-2,1.0492537E0,9.60378E-2,-9.419056E-2,9.178597E-1,1.07562296E-1,1.0442495E-2,1.0374037E-1],"categories":[],"categories_nodes":[],"categories_segments":[],"categories_sizes":[],"default_left":[0,0,0,0,0,0,0,0,0,0,0],"id":19,"left_children":[1,-1,3,5,7,-1,-1,9,-1,-1,-1],"loss_changes":[6.448017E2,0E0,1.2067902E1,1.4162727E1,3.125E-2,0E0,0E0,5.3325806E0,0E0,0E0,0E0],"parents":[2147483647,0,0,2,2,3,3,4,4,7,7],"right_children":[2,-1,4,6,8,-1,-1,10,-1,-1,-1],"split_conditions":[2.4456E2,-1.0746223E-1,2.9167E2,5.76E0,7.4642E2,9.60378E-2,-9.419056E-2,3.564E1,1.07562296E-1,1.0442495E-2,1.0374037E-1],"split_indices":[0,0,0,2,0,0,0,5,0,0,0],"split_type":[0,0,0,0,0,0,0,0,0,0,0],"sum_hessian":[5.9418225E2,2.8746875E2,3.067135E2,1.3746871E1,2.9296664E2,7.4498887E0,6.296983E0,5.495271E1,2.3801393E2,7.2812343E0,4.7671474E1],"tree_param":{"num_deleted":"0","num_feature":"10","num_nodes":"11","size_leaf_vector":"1"}},{"base_weights":[-3.337461E-4,-1.06630735E-1,9.956573E-1,8.2184374E-2,1.038466E0,9.437497E-2,-9.243863E-2,8.9817655E-1,1.06705226E-1,9.603239E-3,1.0257917E-1],"categories":[],"categories_nodes":[],"categories_segments":[],"categories_sizes":[],"default_left":[0,0,0,0,0,0,0,0,0,0,0],"id":20,"left_children":[1,-1,3,5,7,-1,-1,9,-1,-1,-1],"loss_changes":[5.781724E2,0E0,1.0923645E1,1.2743619E1,1.19781494E-1,0E0,0E0,5.206688E0,0E0,0E0,0E0],"parents":[2147483647,0,0,2,2,3,3,4,4,7,7],"right_children":[2,-1,4,6,8,-1,-1,10,-1,-1,-1],"split_conditions":[2.4456E2,-1.06630735E-1,2.9167E2,5.76E0,7.4642E2,9.437497E-2,-9.243863E-2,3.564E1,1.06705226E-1,9.603239E-3,1.0257917E-1],"split_indices":[0,0,0,2,0,0,0,5,0,0,0],"split_type":[0,0,0,0,0,0,0,0,0,0,0],"sum_hessian":[5.4257227E2,2.6204465E2,2.805276E2,1.2688733E1,2.6783887E2,6.870446E0,5.818287E0,5.0825954E1,2.1701291E2,7.2167153E0,4.3609238E1],"tree_param":{"num_deleted":"0","num_feature":"10","num_nodes":"11","size_leaf_vector":"1"}},{"base_weights":[-1.3772339E-4,-1.0588228E-1,9.8546475E-1,8.016818E-2,1.0282894E0,9.274542E-2,-9.072014E-2,8.7848043E-1,1.0593279E-1,8.826549E-3,1.0146828E-1],"categories":[],"categories_nodes":[],"categories_segments":[],"categories_sizes":[],"default_left":[0,0,0,0,0,0,0,0,0,0,0],"id":21,"left_children":[1,-1,3,5,7,-1,-1,9,-1,-1,-1],"loss_changes":[5.187833E2,0E0,9.899796E0,1.147802E1,2.1218872E-1,0E0,0E0,5.0806885E0,0E0,0E0,0E0],"parents":[2147483647,0,0,2,2,3,3,4,4,7,7],"right_children":[2,-1,4,6,8,-1,-1,10,-1,-1,-1],"split_conditions":[2.4456E2,-1.0588228E-1,2.9167E2,5.76E0,7.4642E2,9.274542E-2,-9.072014E-2,3.564E1,1.0593279E-1,8.826549E-3,1.0146828E-1],"split_indices":[0,0,0,2,0,0,0,5,0,0,0],"split_type":[0,0,0,0,0,0,0,0,0,0,0],"sum_hessian":[4.9518436E2,2.3870503E2,2.5647934E2,1.1714356E1,2.4476497E2,6.337055E0,5.377301E0,4.7037663E1,1.9772731E2,7.157795E0,3.9879868E1],"tree_param":{"num_deleted":"0","num_feature":"10","num_nodes":"11","size_leaf_vector":"1"}},{"base_weights":[7.210543E-5,-1.0520617E-1,9.757132E-1,7.81644E-2,1.0185955E0,9.113904E-2,-8.902585E-2,8.5865825E-1,1.0523387E-1,8.10842E-3,1.0039493E-1],"categories":[],"categories_nodes":[],"categories_segments":[],"categories_sizes":[],"default_left":[0,0,0,0,0,0,0,0,0,0,0],"id":22,"left_children":[1,-1,3,5,7,-1,-1,9,-1,-1,-1],"loss_changes":[4.6576788E2,0E0,8.981781E0,1.0347761E1,3.0856323E-1,0E0,0E0,4.953335E0,0E0,0E0,0E0],"parents":[2147483647,0,0,2,2,3,3,4,4,7,7],"right_children":[2,-1,4,6,8,-1,-1,10,-1,-1,-1],"split_conditions":[2.4456E2,-1.0520617E-1,2.9167E2,5.76E0,7.4642E2,9.113904E-2,-8.902585E-2,3.564E1,1.0523387E-1,8.10842E-3,1.0039493E-1],"split_indices":[0,0,0,2,0,0,0,5,0,0,0],"split_type":[0,0,0,0,0,0,0,0,0,0,0],"sum_hessian":[4.517415E2,2.1731265E2,2.3442883E2,1.0818328E1,2.236105E2,5.846727E0,4.9716015E0,4.356526E1,1.8004524E2,7.103979E0,3.646128E1],"tree_param":{"num_deleted":"0","num_feature":"10","num_nodes":"11","size_leaf_vector":"1"}},{"base_weights":[2.9584466E-4,-1.0459309E-1,9.6629065E-1,7.6167874E-2,1.0092685E0,8.954756E-2,-8.7348394E-2,1.0316777E-1,7.506989E-1,4.4054645E-3,9.8242246E-2],"categories":[],"categories_nodes":[],"categories_segments":[],"categories_sizes":[],"default_left":[0,0,0,0,0,0,0,0,0,0,0],"id":23,"left_children":[1,-1,3,5,7,-1,-1,-1,9,-1,-1],"loss_changes":[4.183784E2,0E0,8.157181E0,9.337163E0,4.147644E-1,0E0,0E0,0E0,3.2382936E0,0E0,0E0],"parents":[2147483647,0,0,2,2,3,3,4,4,8,8],"right_children":[2,-1,4,6,8,-1,-1,-1,10,-1,-1],"split_conditions":[2.4456E2,-1.0459309E-1,2.9167E2,5.76E0,2.49E2,8.954756E-2,-8.7348394E-2,1.0316777E-1,4.174E1,4.4054645E-3,9.8242246E-2],"split_indices":[0,0,0,2,4,0,0,0,5,0,0],"split_type":[0,0,0,0,0,0,0,0,0,0,0],"sum_hessian":[4.1196976E2,1.9773207E2,2.142377E2,9.995311E0,2.0424239E2,5.3965287E0,4.5987816E0,1.8520177E2,1.9040619E1,4.9958415E0,1.4044777E1],"tree_param":{"num_deleted":"0","num_feature":"10","num_nodes":"11","size_leaf_vector":"1"}},{"base_weights":[5.023629E-4,-1.0403486E-1,9.569576E-1,7.417141E-2,1.0000551E0,8.7964185E-2,-8.5682E-2,8.127268E-1,1.0404607E-1,-9.581867E-4,9.827782E-2],"categories":[],"categories_nodes":[],"categories_segments":[],"categories_sizes":[],"default_left":[0,0,0,0,0,0,0,0,0,0,0],"id":24,"left_children":[1,-1,3,5,7,-1,-1,9,-1,-1,-1],"loss_changes":[3.7593008E2,0E0,7.4127502E0,8.43256E0,5.7395935E-1,0E0,0E0,5.301365E0,0E0,0E0,0E0],"parents":[2147483647,0,0,2,2,3,3,4,4,7,7],"right_children":[2,-1,4,6,8,-1,-1,10,-1,-1,-1],"split_conditions":[2.4456E2,-1.0403486E-1,2.9167E2,5.76E0,7.4642E2,8.7964185E-2,-8.5682E-2,3.564E1,1.0404607E-1,-9.581867E-4,9.827782E-2],"split_indices":[0,0,0,2,0,0,0,5,0,0,0],"split_type":[0,0,0,0,0,0,0,0,0,0,0],"sum_hessian":[3.7561896E2,1.7983162E2,1.9578734E2,9.240043E0,1.865473E2,4.9835534E0,4.2564898E0,3.6844303E1,1.4970299E2,6.4753675E0,3.0368937E1],"tree_param":{"num_deleted":"0","num_feature":"10","num_nodes":"11","size_leaf_vector":"1"}},{"base_weights":[7.478681E-4,-1.0352432E-1,9.478712E-1,7.217498E-2,9.911276E-1,8.638378E-2,-8.402232E-2,7.9184127E-1,1.0351218E-1,-8.743695E-4,9.725229E-2],"categories":[],"categories_nodes":[],"categories_segments":[],"categories_sizes":[],"default_left":[0,0,0,0,0,0,0,0,0,0,0],"id":25,"left_children":[1,-1,3,5,7,-1,-1,9,-1,-1,-1],"loss_changes":[3.3793134E2,0E0,6.743637E0,7.6220922E0,6.8281555E-1,0E0,0E0,5.106716E0,0E0,0E0,0E0],"parents":[2147483647,0,0,2,2,3,3,4,4,7,7],"right_children":[2,-1,4,6,8,-1,-1,10,-1,-1,-1],"split_conditions":[2.4456E2,-1.0352432E-1,2.9167E2,5.76E0,7.4642E2,8.638378E-2,-8.402232E-2,3.564E1,1.0351218E-1,-8.743695E-4,9.725229E-2],"split_indices":[0,0,0,2,0,0,0,5,0,0,0],"split_type":[0,0,0,0,0,0,0,0,0,0,0],"sum_hessian":[3.4240213E2,1.6348473E2,1.7891739E2,8.547507E0,1.7036989E2,4.6050525E0,3.9424543E0,3.4244934E1,1.3612495E2,6.480773E0,2.776416E1],"tree_param":{"num_deleted":"0","num_feature":"10","num_nodes":"11","size_leaf_vector":"1"}},{"base_weights":[1.0134525E-3,-1.0305504E-1,9.3883765E-1,7.0175014E-2,9.8228025E-1,8.480234E-2,-8.236631E-2,1.01148985E-1,6.576655E-1,-1.2545488E-2,9.492046E-2],"categories":[],"categories_nodes":[],"categories_segments":[],"categories_sizes":[],"default_left":[0,0,0,0,0,0,0,0,0,0,0],"id":26,"left_children":[1,-1,3,5,7,-1,-1,-1,9,-1,-1],"loss_changes":[3.0385965E2,0E0,6.1395416E0,6.89533E0,8.197174E-1,0E0,0E0,0E0,3.7234807E0,0E0,0E0],"parents":[2147483647,0,0,2,2,3,3,4,4,8,8],"right_children":[2,-1,4,6,8,-1,-1,-1,10,-1,-1],"split_conditions":[2.4456E2,-1.0305504E-1,2.9167E2,5.76E0,2.49E2,8.480234E-2,-8.236631E-2,1.01148985E-1,4.174E1,-1.2545488E-2,9.492046E-2],"split_indices":[0,0,0,2,4,0,0,0,5,0,0],"split_type":[0,0,0,0,0,0,0,0,0,0,0],"sum_hessian":[3.120909E2,1.4857086E2,1.6352003E2,7.912854E0,1.556072E2,4.2583494E0,3.6545048E0,1.408199E2,1.4787285E1,4.1661153E0,1.0621169E1],"tree_param":{"num_deleted":"0","num_feature":"10","num_nodes":"11","size_leaf_vector":"1"}},{"base_weights":[1.2266116E-3,-1.0262131E-1,9.29572E-1,6.817116E-2,9.732106E-1,8.321708E-2,-8.0712035E-2,7.4089086E-1,1.0259358E-1,-9.460141E-3,9.513291E-2],"categories":[],"categories_nodes":[],"categories_segments":[],"categories_sizes":[],"default_left":[0,0,0,0,0,0,0,0,0,0,0],"id":27,"left_children":[1,-1,3,5,7,-1,-1,9,-1,-1,-1],"loss_changes":[2.732357E2,0E0,5.5905914E0,6.243127E0,9.9342346E-1,0E0,0E0,5.3785152E0,0E0,0E0,0E0],"parents":[2147483647,0,0,2,2,3,3,4,4,7,7],"right_children":[2,-1,4,6,8,-1,-1,10,-1,-1,-1],"split_conditions":[2.4456E2,-1.0262131E-1,2.9167E2,5.76E0,7.4642E2,8.321708E-2,-8.0712035E-2,3.564E1,1.0259358E-1,-9.460141E-3,9.513291E-2],"split_indices":[0,0,0,2,0,0,0,5,0,0,0],"split_type":[0,0,0,0,0,0,0,0,0,0,0],"sum_hessian":[2.8446484E2,1.3497586E2,1.49489E2,7.331508E0,1.4215749E2,3.9409275E0,3.3905804E0,2.9079245E1,1.1307825E2,5.961411E0,2.3117832E1],"tree_param":{"num_deleted":"0","num_feature":"10","num_nodes":"11","size_leaf_vector":"1"}},{"base_weights":[1.5152523E-3,-1.0221799E-1,9.203783E-1,6.616551E-2,9.642447E-1,8.162638E-2,-7.905857E-2,7.185766E-1,1.0216502E-1,8.773461E-1,-3.595948E-2,2.988951E-2,9.469483E-2],"categories":[],"categories_nodes":[],"categories_segments":[],"categories_sizes":[],"default_left":[0,0,0,0,0,0,0,0,0,0,0,0,0],"id":28,"left_children":[1,-1,3,5,7,-1,-1,9,-1,11,-1,-1,-1],"loss_changes":[2.4577293E2,0E0,5.0956726E0,5.6574388E0,1.1117859E0,0E0,0E0,5.1365166E0,0E0,7.1702194E-1,0E0,0E0,0E0],"parents":[2147483647,0,0,2,2,3,3,4,4,7,7,9,9],"right_children":[2,-1,4,6,8,-1,-1,10,-1,12,-1,-1,-1],"split_conditions":[2.4456E2,-1.0221799E-1,2.9167E2,5.76E0,7.4642E2,8.162638E-2,-7.905857E-2,2.26E2,1.0216502E-1,1.1E1,-3.595948E-2,2.988951E-2,9.469483E-2],"split_indices":[0,0,0,2,0,0,0,4,0,7,0,0,0],"split_type":[0,0,0,0,0,0,0,0,0,0,0,0,0],"sum_hessian":[2.5928372E2,1.2259243E2,1.366913E2,6.7991605E0,1.2989214E2,3.6504204E0,3.14874E0,2.7163385E1,1.0272875E2,2.3839144E1,3.3242426E0,3.1289933E0,2.071015E1],"tree_param":{"num_deleted":"0","num_feature":"10","num_nodes":"13","size_leaf_vector":"1"}},{"base_weights":[1.8475449E-3,-1.01840414E-1,9.108056E-1,6.4158835E-2,9.548914E-1,8.0029465E-2,-7.740588E-2,9.92893E-2,5.519574E-1,-2.8889164E-2,9.1460794E-2],"categories":[],"categories_nodes":[],"categories_segments":[],"categories_sizes":[],"default_left":[0,0,0,0,0,0,0,0,0,0,0],"id":29,"left_children":[1,-1,3,5,7,-1,-1,-1,9,-1,-1],"loss_changes":[2.2107585E2,0E0,4.6443405E0,5.131139E0,1.2857285E0,0E0,0E0,0E0,4.0981894E0,0E0,0E0],"parents":[2147483647,0,0,2,2,3,3,4,4,8,8],"right_children":[2,-1,4,6,8,-1,-1,-1,10,-1,-1],"split_conditions":[2.4456E2,-1.01840414E-1,2.9167E2,5.76E0,2.49E2,8.0029465E-2,-7.740588E-2,9.92893E-2,4.174E1,-2.8889164E-2,9.1460794E-2],"split_indices":[0,0,0,2,4,0,0,0,5,0,0],"split_type":[0,0,0,0,0,0,0,0,0,0,0],"sum_hessian":[2.3639095E2,1.1132019E2,1.2507075E2,6.3117614E0,1.1875899E2,3.3845975E0,2.9271638E0,1.071859E2,1.1573088E1,3.548606E0,8.024482E0],"tree_param":{"num_deleted":"0","num_feature":"10","num_nodes":"11","size_leaf_vector":"1"}},{"base_weights":[2.0538003E-3,-1.0148432E-1,9.009447E-1,6.2155563E-2,9.45269E-1,7.8426525E-2,-7.575461E-2,6.607803E-1,1.0141616E-1,-2.6147127E-2,9.215605E-2],"categories":[],"categories_nodes":[],"categories_segments":[],"categories_sizes":[],"default_left":[0,0,0,0,0,0,0,0,0,0,0],"id":30,"left_children":[1,-1,3,5,7,-1,-1,9,-1,-1,-1],"loss_changes":[1.9883813E2,0E0,4.2339935E0,4.6579356E0,1.4778671E0,0E0,0E0,6.0698547E0,0E0,0E0,0E0],"parents":[2147483647,0,0,2,2,3,3,4,4,7,7],"right_children":[2,-1,4,6,8,-1,-1,10,-1,-1,-1],"split_conditions":[2.4456E2,-1.0148432E-1,2.9167E2,5.76E0,7.4642E2,7.8426525E-2,-7.575461E-2,3.564E1,1.0141616E-1,-2.6147127E-2,9.215605E-2],"split_indices":[0,0,0,2,0,0,0,5,0,0,0],"split_type":[0,0,0,0,0,0,0,0,0,0,0],"sum_hessian":[2.15528E2,1.0106557E2,1.14462425E2,5.8655486E0,1.0859688E2,3.141394E0,2.724155E0,2.3236069E1,8.536081E1,5.1214314E0,1.8114637E1],"tree_param":{"num_deleted":"0","num_feature":"10","num_nodes":"11","size_leaf_vector":"1"}},{"base_weights":[2.363872E-3,-1.01145804E-1,8.9098656E-1,5.2795255E-1,1.01049416E-1,7.495376E-1,-2.5894836E-1,1.7743504E-1,9.0004456E-1,-1.8152283E-1,8.721159E-2,4.61307E-2,9.668013E-2],"categories":[],"categories_nodes":[],"categories_segments":[],"categories_sizes":[],"default_left":[0,0,0,0,0,0,0,0,0,0,0,0,0],"id":31,"left_children":[1,-1,3,5,-1,7,-1,9,11,-1,-1,-1,-1],"loss_changes":[1.7887256E2,0E0,4.0569077E0,2.148867E1,0E0,2.1820068E0,0E0,1.1148299E1,1.7744064E-1,0E0,0E0,0E0,0E0],"parents":[2147483647,0,0,2,2,3,3,5,5,7,7,8,8],"right_children":[2,-1,4,6,-1,8,-1,10,12,-1,-1,-1,-1],"split_conditions":[2.4456E2,-1.01145804E-1,7.4642E2,2.49E2,1.01049416E-1,3.059E1,-2.5894836E-1,1E0,2.9167E2,-1.8152283E-1,8.721159E-2,4.61307E-2,9.668013E-2],"split_indices":[0,0,0,4,0,5,0,3,0,0,0,0,0],"split_type":[0,0,0,0,0,0,0,0,0,0,0,0,0],"sum_hessian":[1.9654727E2,9.1741714E1,1.0480556E2,2.7298204E1,7.7507355E1,2.6195791E1,1.1024114E0,5.9099565E0,2.0285835E1,1.1107569E0,4.7991996E0,3.7236404E0,1.6562195E1],"tree_param":{"num_deleted":"0","num_feature":"10","num_nodes":"13","size_leaf_vector":"1"}},{"base_weights":[1.1443775E-3,-1.00821234E-1,8.8214856E-1,5.0814295E-1,1.0069604E-1,7.3413444E-1,-2.5681812E-1,1.5779627E-2,8.844636E-1,4.3349843E-2,9.5934056E-2],"categories":[],"categories_nodes":[],"categories_segments":[],"categories_sizes":[],"default_left":[0,0,0,0,0,0,0,0,0,0,0],"id":32,"left_children":[1,-1,3,5,-1,7,-1,-1,9,-1,-1],"loss_changes":[1.6078676E2,0E0,3.9950256E0,2.0083158E1,0E0,2.0404663E0,0E0,0E0,2.5066376E-1,0E0,0E0],"parents":[2147483647,0,0,2,2,3,3,5,5,8,8],"right_children":[2,-1,4,6,-1,8,-1,-1,10,-1,-1],"split_conditions":[2.4456E2,-1.00821234E-1,7.4642E2,2.49E2,1.0069604E-1,3.059E1,-2.5681812E-1,1.5779627E-2,2.9167E2,4.3349843E-2,9.5934056E-2],"split_indices":[0,0,0,4,0,5,0,0,0,0,0],"split_type":[0,0,0,0,0,0,0,0,0,0,0],"sum_hessian":[1.7881198E2,8.326817E1,9.554381E1,2.517544E1,7.036836E1,2.4161835E1,1.0136057E0,5.4225016E0,1.8739334E1,3.6351569E0,1.51041765E1],"tree_param":{"num_deleted":"0","num_feature":"10","num_nodes":"11","size_leaf_vector":"1"}},{"base_weights":[4.973714E-4,-1.0050718E-1,8.699134E-1,4.8339155E-1,1.00352444E-1,-1.104578E-1,9.416103E-2,-2.438822E0,7.2182316E-1,-5.141697E-2,-3.0539018E-1,8.7522976E-2,1.8599737E-2],"categories":[],"categories_nodes":[],"categories_segments":[],"categories_sizes":[],"default_left":[0,0,0,0,0,0,0,0,0,0,0,0,0],"id":33,"left_children":[1,-1,3,5,-1,7,-1,9,11,-1,-1,-1,-1],"loss_changes":[1.4436806E2,0E0,4.0885315E0,6.8194494E0,0E0,2.4324123E1,0E0,2.3298092E0,6.0570717E-1,0E0,0E0,0E0,0E0],"parents":[2147483647,0,0,2,2,3,3,5,5,7,7,8,8],"right_children":[2,-1,4,6,-1,8,-1,10,12,-1,-1,-1,-1],"split_conditions":[2.4456E2,-1.0050718E-1,7.4642E2,2E0,1.00352444E-1,4.076E1,9.416103E-2,2.6282E2,3.578E1,-5.141697E-2,-3.0539018E-1,8.7522976E-2,1.8599737E-2],"split_indices":[0,0,0,9,0,5,0,0,2,0,0,0,0],"split_type":[0,0,0,0,0,0,0,0,0,0,0,0,0],"sum_hessian":[1.6313205E2,7.557071E1,8.756134E1,2.3678875E1,6.388246E1,1.064367E1,1.3035205E1,2.2944627E0,8.349207E0,1.0003127E0,1.29415E0,5.998437E0,2.35077E0],"tree_param":{"num_deleted":"0","num_feature":"10","num_nodes":"13","size_leaf_vector":"1"}},{"base_weights":[-4.7535246E-4,-1.0020043E-1,8.597204E-1,4.6254382E-1,1.0001507E-1,6.980348E-1,-2.3286167E-1,-1.269106E-2,8.1089056E-1,9.2995934E-2,3.5773426E-2],"categories":[],"categories_nodes":[],"categories_segments":[],"categories_sizes":[],"default_left":[0,0,0,0,0,0,0,0,0,0,0],"id":34,"left_children":[1,-1,3,5,-1,7,-1,-1,9,-1,-1],"loss_changes":[1.2973901E2,0E0,4.0559845E0,1.6757868E1,0E0,2.151146E0,0E0,0E0,7.188406E-1,0E0,0E0],"parents":[2147483647,0,0,2,2,3,3,5,5,8,8],"right_children":[2,-1,4,6,-1,8,-1,-1,10,-1,-1],"split_conditions":[2.4456E2,-1.0020043E-1,7.4642E2,2.49E2,1.0001507E-1,1.1E1,-2.3286167E-1,-1.269106E-2,5.7E1,9.2995934E-2,3.5773426E-2],"split_indices":[0,0,0,4,0,7,0,0,4,0,0],"split_type":[0,0,0,0,0,0,0,0,0,0,0],"sum_hessian":[1.4859482E2,6.858093E1,8.001388E1,2.2022318E1,5.799156E1,2.1000418E1,1.021899E0,2.5122201E0,1.8488197E1,1.3807924E1,4.680274E0],"tree_param":{"num_deleted":"0","num_feature":"10","num_nodes":"11","size_leaf_vector":"1"}},{"base_weights":[-1.2851522E-3,-9.989792E-2,8.4592324E-1,4.3634093E-1,9.9680655E-2,6.7310053E-1,-2.1925282E-1,5.0127972E-2,8.512977E-1,-1.7726344E-1,8.1822164E-2,3.5738178E-2,9.400113E-2],"categories":[],"categories_nodes":[],"categories_segments":[],"categories_sizes":[],"default_left":[0,0,0,0,0,0,0,0,0,0,0,0,0],"id":35,"left_children":[1,-1,3,5,-1,7,-1,9,11,-1,-1,-1,-1],"loss_changes":[1.1639622E2,0E0,4.167221E0,1.5060879E1,0E0,2.2650852E0,0E0,9.41159E0,3.6960125E-1,0E0,0E0,0E0,0E0],"parents":[2147483647,0,0,2,2,3,3,5,5,7,7,8,8],"right_children":[2,-1,4,6,-1,8,-1,10,12,-1,-1,-1,-1],"split_conditions":[2.4456E2,-9.989792E-2,7.4642E2,2.49E2,9.9680655E-2,3.059E1,-2.1925282E-1,1E0,2.9167E2,-1.7726344E-1,8.1822164E-2,3.5738178E-2,9.400113E-2],"split_indices":[0,0,0,4,0,5,0,3,0,0,0,0,0],"split_type":[0,0,0,0,0,0,0,0,0,0,0,0,0],"sum_hessian":[1.3570572E2,6.223595E1,7.346977E1,2.082659E1,5.264318E1,1.978838E1,1.0382105E0,4.6863465E0,1.5102034E1,1.0016042E0,3.6847422E0,3.0651562E0,1.2036877E1],"tree_param":{"num_deleted":"0","num_feature":"10","num_nodes":"13","size_leaf_vector":"1"}},{"base_weights":[-2.6650466E-3,-9.959672E-2,8.344698E-1,4.1362077E-1,9.934601E-2,6.556411E-1,-2.044996E-1,3.0819164E-3,8.339539E-1,3.34562E-2,9.317183E-2],"categories":[],"categories_nodes":[],"categories_segments":[],"categories_sizes":[],"default_left":[0,0,0,0,0,0,0,0,0,0,0],"id":36,"left_children":[1,-1,3,5,-1,7,-1,-1,9,-1,-1],"loss_changes":[1.0450754E2,0E0,4.152664E0,1.3488197E1,0E0,2.129304E0,0E0,0E0,4.2109108E-1,0E0,0E0],"parents":[2147483647,0,0,2,2,3,3,5,5,8,8],"right_children":[2,-1,4,6,-1,8,-1,-1,10,-1,-1],"split_conditions":[2.4456E2,-9.959672E-2,7.4642E2,2.49E2,9.934601E-2,3.059E1,-2.044996E-1,3.0819164E-3,2.9167E2,3.34562E-2,9.317183E-2],"split_indices":[0,0,0,4,0,5,0,0,0,0,0],"split_type":[0,0,0,0,0,0,0,0,0,0,0],"sum_hessian":[1.2368185E2,5.6478073E1,6.720377E1,1.9414618E1,4.7789158E1,1.834237E1,1.072249E0,4.332788E0,1.4009581E1,3.017573E0,1.0992007E1],"tree_param":{"num_deleted":"0","num_feature":"10","num_nodes":"11","size_leaf_vector":"1"}},{"base_weights":[-3.2099981E-3,-9.9293955E-2,8.198126E-1,3.8928E-1,9.9008046E-2,6.3176817E-1,-1.8986586E-1,-2.157336E-2,7.6268417E-1,9.007096E-2,2.67399E-2],"categories":[],"categories_nodes":[],"categories_segments":[],"categories_sizes":[],"default_left":[0,0,0,0,0,0,0,0,0,0,0],"id":37,"left_children":[1,-1,3,5,-1,7,-1,-1,9,-1,-1],"loss_changes":[9.375408E1,0E0,4.2213173E0,1.1994579E1,0E0,2.1997628E0,0E0,0E0,8.6042595E-1,0E0,0E0],"parents":[2147483647,0,0,2,2,3,3,5,5,8,8],"right_children":[2,-1,4,6,-1,8,-1,-1,10,-1,-1],"split_conditions":[2.4456E2,-9.9293955E-2,7.4642E2,2.49E2,9.9008046E-2,1.1E1,-1.8986586E-1,-2.157336E-2,5.7E1,9.007096E-2,2.67399E-2],"split_indices":[0,0,0,4,0,7,0,0,4,0,0],"split_type":[0,0,0,0,0,0,0,0,0,0,0],"sum_hessian":[1.1309711E2,5.125442E1,6.184269E1,1.8457655E1,4.3385033E1,1.734338E1,1.1142755E0,2.2339213E0,1.5109459E1,1.1176294E1,3.9331646E0],"tree_param":{"num_deleted":"0","num_feature":"10","num_nodes":"11","size_leaf_vector":"1"}},{"base_weights":[-3.9895684E-3,-9.898686E-2,8.0413157E-1,3.641931E-1,9.866374E-2,6.063552E-1,-1.761168E-1,-3.0454106E-3,8.022843E-1,2.7269268E-2,9.181294E-2],"categories":[],"categories_nodes":[],"categories_segments":[],"categories_sizes":[],"default_left":[0,0,0,0,0,0,0,0,0,0,0],"id":38,"left_children":[1,-1,3,5,-1,7,-1,-1,9,-1,-1],"loss_changes":[8.4044174E1,0E0,4.295437E0,1.0632428E1,0E0,2.1987252E0,0E0,0E0,5.6945515E-1,0E0,0E0],"parents":[2147483647,0,0,2,2,3,3,5,5,8,8],"right_children":[2,-1,4,6,-1,8,-1,-1,10,-1,-1],"split_conditions":[2.4456E2,-9.898686E-2,7.4642E2,2.49E2,9.866374E-2,3.059E1,-1.761168E-1,-3.0454106E-3,2.9167E2,2.7269268E-2,9.181294E-2],"split_indices":[0,0,0,4,0,5,0,0,0,0,0],"split_type":[0,0,0,0,0,0,0,0,0,0,0],"sum_hessian":[1.0349E2,4.6516556E1,5.6973442E1,1.7583395E1,3.939005E1,1.642648E1,1.1569161E0,4.063581E0,1.2362898E1,2.82091E0,9.541988E0],"tree_param":{"num_deleted":"0","num_feature":"10","num_nodes":"11","size_leaf_vector":"1"}},{"base_weights":[-4.474121E-3,-9.867269E-2,7.883357E-1,3.4142283E-1,9.83101E-2,5.824848E-1,-1.6360216E-1,1.1257578E-1,8.9345805E-2,-1.6214891E-1,7.40603E-2],"categories":[],"categories_nodes":[],"categories_segments":[],"categories_sizes":[],"default_left":[0,0,0,0,0,0,0,0,0,0,0],"id":39,"left_children":[1,-1,3,5,-1,7,-1,9,-1,-1,-1],"loss_changes":[7.536071E1,0E0,4.3258095E0,9.431732E0,0E0,2.323937E0,0E0,9.642571E0,0E0,0E0,0E0],"parents":[2147483647,0,0,2,2,3,3,5,5,7,7],"right_children":[2,-1,4,6,-1,8,-1,10,-1,-1,-1],"split_conditions":[2.4456E2,-9.867269E-2,7.4642E2,2.49E2,9.83101E-2,2E0,-1.6360216E-1,4.076E1,8.9345805E-2,-1.6214891E-1,7.40603E-2],"split_indices":[0,0,0,4,0,9,0,5,0,0,0],"split_type":[0,0,0,0,0,0,0,0,0,0,0],"sum_hessian":[9.477378E1,4.222029E1,5.2553486E1,1.6786896E1,3.576659E1,1.5591621E1,1.1952736E0,6.751499E0,8.840122E0,1.3744863E0,5.3770127E0],"tree_param":{"num_deleted":"0","num_feature":"10","num_nodes":"11","size_leaf_vector":"1"}},{"base_weights":[-6.208907E-3,-9.834873E-2,7.7590925E-1,3.2042524E-1,9.794422E-2,5.656855E-1,-1.524042E-1,9.5731415E-2,8.7953575E-2,-1.6151808E-1,7.166277E-2],"categories":[],"categories_nodes":[],"categories_segments":[],"categories_sizes":[],"default_left":[0,0,0,0,0,0,0,0,0,0,0],"id":40,"left_children":[1,-1,3,5,-1,7,-1,9,-1,-1,-1],"loss_changes":[6.762137E1,0E0,4.242275E0,8.400766E0,0E0,2.1928406E0,0E0,8.916336E0,0E0,0E0,0E0],"parents":[2147483647,0,0,2,2,3,3,5,5,7,7],"right_children":[2,-1,4,6,-1,8,-1,10,-1,-1,-1],"split_conditions":[2.4456E2,-9.834873E-2,7.4642E2,2.49E2,9.794422E-2,2E0,-1.524042E-1,4.076E1,8.7953575E-2,-1.6151808E-1,7.166277E-2],"split_indices":[0,0,0,4,0,9,0,5,0,0,0],"split_type":[0,0,0,0,0,0,0,0,0,0,0],"sum_hessian":[8.6471085E1,3.8325207E1,4.8145878E1,1.5664595E1,3.2481285E1,1.4438061E1,1.2265337E0,6.303831E0,8.13423E0,1.2521356E0,5.0516953E0],"tree_param":{"num_deleted":"0","num_feature":"10","num_nodes":"11","size_leaf_vector":"1"}},{"base_weights":[-7.988896E-3,-9.801231E-2,7.626464E-1,2.9910418E-1,9.7563244E-2,5.474001E-1,-1.4246178E-1,-3.1469688E-2,7.029155E-1,8.6021535E-2,1.804412E-2],"categories":[],"categories_nodes":[],"categories_segments":[],"categories_sizes":[],"default_left":[0,0,0,0,0,0,0,0,0,0,0],"id":41,"left_children":[1,-1,3,5,-1,7,-1,-1,9,-1,-1],"loss_changes":[6.064927E1,0E0,4.167141E0,7.4825325E0,0E0,2.1533227E0,0E0,0E0,8.7359047E-1,0E0,0E0],"parents":[2147483647,0,0,2,2,3,3,5,5,8,8],"right_children":[2,-1,4,6,-1,8,-1,-1,10,-1,-1],"split_conditions":[2.4456E2,-9.801231E-2,7.4642E2,2.49E2,9.7563244E-2,1.1E1,-1.4246178E-1,-3.1469688E-2,5.7E1,8.6021535E-2,1.804412E-2],"split_indices":[0,0,0,4,0,7,0,0,4,0,0],"split_type":[0,0,0,0,0,0,0,0,0,0,0],"sum_hessian":[7.8958496E1,3.4794456E1,4.4164043E1,1.4660756E1,2.9503286E1,1.3411333E1,1.249423E0,1.893144E0,1.1518189E1,8.356036E0,3.1621532E0],"tree_param":{"num_deleted":"0","num_feature":"10","num_nodes":"11","size_leaf_vector":"1"}},{"base_weights":[-8.730939E-3,-9.766071E-2,7.453189E-1,2.7752307E-1,9.716423E-2,5.225054E-1,-1.3365112E-1,-1.45248445E-2,7.4840444E-1,1.8044082E-2,8.868566E-2],"categories":[],"categories_nodes":[],"categories_segments":[],"categories_sizes":[],"default_left":[0,0,0,0,0,0,0,0,0,0,0],"id":42,"left_children":[1,-1,3,5,-1,7,-1,-1,9,-1,-1],"loss_changes":[5.4328808E1,0E0,4.1610146E0,6.647275E0,0E0,2.1875432E0,0E0,0E0,6.625185E-1,0E0,0E0],"parents":[2147483647,0,0,2,2,3,3,5,5,8,8],"right_children":[2,-1,4,6,-1,8,-1,-1,10,-1,-1],"split_conditions":[2.4456E2,-9.766071E-2,7.4642E2,2.49E2,9.716423E-2,3.059E1,-1.3365112E-1,-1.45248445E-2,2.9167E2,1.8044082E-2,8.868566E-2],"split_indices":[0,0,0,4,0,5,0,0,0,0,0],"split_type":[0,0,0,0,0,0,0,0,0,0,0],"sum_hessian":[7.244334E1,3.1594463E1,4.0848873E1,1.4044998E1,2.6803877E1,1.2781293E1,1.2637045E0,3.3211248E0,9.460169E0,2.3055453E0,7.154623E0],"tree_param":{"num_deleted":"0","num_feature":"10","num_nodes":"11","size_leaf_vector":"1"}},{"base_weights":[-9.102242E-3,-9.729127E-2,7.281463E-1,2.5864694E-1,9.6744284E-2,4.998002E-1,-1.2583068E-1,-5.532712E-3,8.499336E-2,-1.584597E-1,6.52871E-2],"categories":[],"categories_nodes":[],"categories_segments":[],"categories_sizes":[],"default_left":[0,0,0,0,0,0,0,0,0,0,0],"id":43,"left_children":[1,-1,3,5,-1,7,-1,9,-1,-1,-1],"loss_changes":[4.8690937E1,0E0,4.1125755E0,5.9241595E0,0E0,2.3411715E0,0E0,7.686637E0,0E0,0E0,0E0],"parents":[2147483647,0,0,2,2,3,3,5,5,7,7],"right_children":[2,-1,4,6,-1,8,-1,10,-1,-1,-1],"split_conditions":[2.4456E2,-9.729127E-2,7.4642E2,2.49E2,9.6744284E-2,2E0,-1.2583068E-1,4.076E1,8.499336E-2,-1.584597E-1,6.52871E-2],"split_indices":[0,0,0,4,0,9,0,5,0,0,0],"split_type":[0,0,0,0,0,0,0,0,0,0,0],"sum_hessian":[6.652701E1,2.869464E1,3.7832367E1,1.34751005E1,2.4357265E1,1.2205319E1,1.2697811E0,5.398331E0,6.806988E0,1.1745813E0,4.22375E0],"tree_param":{"num_deleted":"0","num_feature":"10","num_nodes":"11","size_leaf_vector":"1"}},{"base_weights":[-1.1082967E-2,-9.690125E-2,7.132412E-1,2.3833479E-1,9.630054E-2,-3.8220227E-1,8.336782E-2,-1.6522203E-1,4.5870653E-1,7.4028656E-2,-1.53431585E-2],"categories":[],"categories_nodes":[],"categories_segments":[],"categories_sizes":[],"default_left":[0,0,0,0,0,0,0,0,0,0,0],"id":44,"left_children":[1,-1,3,5,-1,7,-1,-1,9,-1,-1],"loss_changes":[4.3626053E1,0E0,4.018305E0,5.3694444E0,0E0,8.639409E0,0E0,0E0,1.0138074E0,0E0,0E0],"parents":[2147483647,0,0,2,2,3,3,5,5,8,8],"right_children":[2,-1,4,6,-1,8,-1,-1,10,-1,-1],"split_conditions":[2.4456E2,-9.690125E-2,7.4642E2,2E0,9.630054E-2,4.076E1,8.336782E-2,-1.6522203E-1,3.578E1,7.4028656E-2,-1.53431585E-2],"split_indices":[0,0,0,9,0,5,0,0,2,0,0],"split_type":[0,0,0,0,0,0,0,0,0,0,0],"sum_hessian":[6.0879105E1,2.6067127E1,3.4811977E1,1.2671805E1,2.2140175E1,6.379917E0,6.2918878E0,2.1571648E0,4.2227526E0,2.7489195E0,1.4738328E0],"tree_param":{"num_deleted":"0","num_feature":"10","num_nodes":"11","size_leaf_vector":"1"}},{"base_weights":[-1.128012E-2,-9.648797E-2,7.009584E-1,2.2642817E-1,9.583018E-2,-3.7198287E-1,8.165377E-2,-1.5840356E-1,4.4108877E-1,7.252027E-2,-1.4381676E-2],"categories":[],"categories_nodes":[],"categories_segments":[],"categories_sizes":[],"default_left":[0,0,0,0,0,0,0,0,0,0,0],"id":45,"left_children":[1,-1,3,5,-1,7,-1,-1,9,-1,-1],"loss_changes":[3.922362E1,0E0,3.8212032E0,4.8721185E0,0E0,7.705787E0,0E0,0E0,9.414694E-1,0E0,0E0],"parents":[2147483647,0,0,2,2,3,3,5,5,8,8],"right_children":[2,-1,4,6,-1,8,-1,-1,10,-1,-1],"split_conditions":[2.4456E2,-9.648797E-2,7.4642E2,2E0,9.583018E-2,4.076E1,8.165377E-2,-1.5840356E-1,3.578E1,7.252027E-2,-1.4381676E-2],"split_indices":[0,0,0,9,0,5,0,0,2,0,0],"split_type":[0,0,0,0,0,0,0,0,0,0,0],"sum_hessian":[5.5754757E1,2.3686602E1,3.2068153E1,1.1936896E1,2.0131258E1,6.1102877E0,5.8266087E0,2.0725331E0,4.0377545E0,2.5562232E0,1.4815311E0],"tree_param":{"num_deleted":"0","num_feature":"10","num_nodes":"11","size_leaf_vector":"1"}},{"base_weights":[-1.1407931E-2,-9.6048705E-2,6.8811345E-1,2.1475147E-1,9.533046E-2,-3.6124405E-1,7.985047E-2,-1.5166938E-1,4.2398888E-1,-1.5647445E-2,7.141233E-2],"categories":[],"categories_nodes":[],"categories_segments":[],"categories_sizes":[],"default_left":[0,0,0,0,0,0,0,0,0,0,0],"id":46,"left_children":[1,-1,3,5,-1,7,-1,-1,9,-1,-1],"loss_changes":[3.5259514E1,0E0,3.634534E0,4.414964E0,0E0,6.872411E0,0E0,0E0,9.317969E-1,0E0,0E0],"parents":[2147483647,0,0,2,2,3,3,5,5,8,8],"right_children":[2,-1,4,6,-1,8,-1,-1,10,-1,-1],"split_conditions":[2.4456E2,-9.6048705E-2,7.4642E2,2E0,9.533046E-2,4.076E1,7.985047E-2,-1.5166938E-1,6.137E1,-1.5647445E-2,7.141233E-2],"split_indices":[0,0,0,9,0,5,0,0,5,0,0],"split_type":[0,0,0,0,0,0,0,0,0,0,0],"sum_hessian":[5.1114075E1,2.1530033E1,2.9584042E1,1.1272538E1,1.8311502E1,5.8658304E0,5.406708E0,1.9965049E0,3.8693259E0,1.4430138E0,2.426312E0],"tree_param":{"num_deleted":"0","num_feature":"10","num_nodes":"11","size_leaf_vector":"1"}},{"base_weights":[-1.1504165E-2,-9.5580734E-2,6.747615E-1,2.0329995E-1,9.47985E-2,-3.5055962E-1,7.7958636E-2,-1.4511497E-1,4.07408E-1,7.011857E-2,-1.5825314E-2],"categories":[],"categories_nodes":[],"categories_segments":[],"categories_sizes":[],"default_left":[0,0,0,0,0,0,0,0,0,0,0],"id":47,"left_children":[1,-1,3,5,-1,7,-1,-1,9,-1,-1],"loss_changes":[3.1690441E1,0E0,3.4565935E0,3.997264E0,0E0,6.1297054E0,0E0,0E0,8.9405745E-1,0E0,0E0],"parents":[2147483647,0,0,2,2,3,3,5,5,8,8],"right_children":[2,-1,4,6,-1,8,-1,-1,10,-1,-1],"split_conditions":[2.4456E2,-9.5580734E-2,7.4642E2,2E0,9.47985E-2,4.076E1,7.7958636E-2,-1.4511497E-1,3.578E1,7.011857E-2,-1.5825314E-2],"split_indices":[0,0,0,9,0,5,0,0,2,0,0],"split_type":[0,0,0,0,0,0,0,0,0,0,0],"sum_hessian":[4.6906555E1,1.957649E1,2.7330063E1,1.0667247E1,1.6662817E1,5.6391973E0,5.0280495E0,1.926842E0,3.7123551E0,2.2856898E0,1.4266653E0],"tree_param":{"num_deleted":"0","num_feature":"10","num_nodes":"11","size_leaf_vector":"1"}},{"base_weights":[-1.1554194E-2,-9.508138E-2,6.609169E-1,1.9216031E-1,9.423152E-2,-3.3980423E-1,7.5980686E-2,-1.3879584E-1,3.9137954E-1,-1.6925884E-2,6.903288E-2],"categories":[],"categories_nodes":[],"categories_segments":[],"categories_sizes":[],"default_left":[0,0,0,0,0,0,0,0,0,0,0],"id":48,"left_children":[1,-1,3,5,-1,7,-1,-1,9,-1,-1],"loss_changes":[2.8478243E1,0E0,3.2861614E0,3.614965E0,0E0,5.4707537E0,0E0,0E0,8.8236374E-1,0E0,0E0],"parents":[2147483647,0,0,2,2,3,3,5,5,8,8],"right_children":[2,-1,4,6,-1,8,-1,-1,10,-1,-1],"split_conditions":[2.4456E2,-9.508138E-2,7.4642E2,2E0,9.423152E-2,4.076E1,7.5980686E-2,-1.3879584E-1,6.137E1,-1.6925884E-2,6.903288E-2],"split_indices":[0,0,0,9,0,5,0,0,5,0,0],"split_type":[0,0,0,0,0,0,0,0,0,0,0],"sum_hessian":[4.309236E1,1.780696E1,2.52854E1,1.0116347E1,1.5169053E1,5.429512E0,4.686835E0,1.862039E0,3.5674732E0,1.3915786E0,2.1758947E0],"tree_param":{"num_deleted":"0","num_feature":"10","num_nodes":"11","size_leaf_vector":"1"}},{"base_weights":[-1.1576075E-2,-9.454797E-2,6.4661896E-1,1.8133382E-1,9.362682E-2,7.977958E-2,-3.0260426E-1,6.2044103E-2,-1.0001175E0,-1.453976E-1,2.1987962E-2],"categories":[],"categories_nodes":[],"categories_segments":[],"categories_sizes":[],"default_left":[0,0,0,0,0,0,0,0,0,0,0],"id":49,"left_children":[1,-1,3,5,-1,-1,7,-1,9,-1,-1],"loss_changes":[2.5587793E1,0E0,3.1224174E0,3.4075072E0,0E0,0E0,4.9151797E0,0E0,2.6354265E0,0E0,0E0],"parents":[2147483647,0,0,2,2,3,3,6,6,8,8],"right_children":[2,-1,4,6,-1,-1,8,-1,10,-1,-1],"split_conditions":[2.4456E2,-9.454797E-2,7.4642E2,3.578E1,9.362682E-2,7.977958E-2,3E0,6.2044103E-2,4.374E1,-1.453976E-1,2.1987962E-2],"split_indices":[0,0,0,2,0,0,1,0,5,0,0],"split_type":[0,0,0,0,0,0,0,0,0,0,0],"sum_hessian":[3.963251E1,1.6204172E1,2.342834E1,9.612735E0,1.3815607E1,3.9423034E0,5.670431E0,2.4881997E0,3.1822314E0,2.1795993E0,1.0026321E0],"tree_param":{"num_deleted":"0","num_feature":"10","num_nodes":"11","size_leaf_vector":"1"}},{"base_weights":[-1.0851627E-2,-9.3977906E-2,6.342671E-1,1.7421298E-1,9.2982195E-2,7.835437E-2,-2.907546E-1,5.987638E-2,-9.494979E-1,-1.3913749E-1,1.8820664E-2],"categories":[],"categories_nodes":[],"categories_segments":[],"categories_sizes":[],"default_left":[0,0,0,0,0,0,0,0,0,0,0],"id":50,"left_children":[1,-1,3,5,-1,-1,7,-1,9,-1,-1],"loss_changes":[2.3039715E1,0E0,2.9244623E0,3.0919867E0,0E0,0E0,4.3557663E0,0E0,2.3230677E0,0E0,0E0],"parents":[2147483647,0,0,2,2,3,3,6,6,8,8],"right_children":[2,-1,4,6,-1,-1,8,-1,10,-1,-1],"split_conditions":[2.4456E2,-9.3977906E-2,7.4642E2,3.578E1,9.2982195E-2,7.835437E-2,3E0,5.987638E-2,4.308E1,-1.3913749E-1,1.8820664E-2],"split_indices":[0,0,0,2,0,0,1,0,5,0,0],"split_type":[0,0,0,0,0,0,0,0,0,0,0],"sum_hessian":[3.6451733E1,1.4752449E1,2.1699284E1,9.109337E0,1.2589947E1,3.646073E0,5.463264E0,2.3632104E0,3.1000533E0,2.0722415E0,1.0278118E0],"tree_param":{"num_deleted":"0","num_feature":"10","num_nodes":"11","size_leaf_vector":"1"}},{"base_weights":[-1.011072E-2,-9.336866E-2,6.212673E-1,1.6702035E-1,9.229497E-2,-3.289781E-1,7.173561E-2,-9.1698015E-1,6.419199E-2,-1.3114052E-1,1.2789867E-2],"categories":[],"categories_nodes":[],"categories_segments":[],"categories_sizes":[],"default_left":[0,0,0,0,0,0,0,0,0,0,0],"id":51,"left_children":[1,-1,3,5,-1,7,-1,9,-1,-1,-1],"loss_changes":[2.074032E1,0E0,2.742178E0,2.8716822E0,0E0,3.8793406E0,0E0,1.8169606E0,0E0,0E0,0E0],"parents":[2147483647,0,0,2,2,3,3,5,5,7,7],"right_children":[2,-1,4,6,-1,8,-1,10,-1,-1,-1],"split_conditions":[2.4456E2,-9.336866E-2,7.4642E2,2E0,9.229497E-2,6.137E1,7.173561E-2,1.9E1,6.419199E-2,-1.3114052E-1,1.2789867E-2],"split_indices":[0,0,0,9,0,5,0,7,0,0,0],"split_type":[0,0,0,0,0,0,0,0,0,0,0],"sum_hessian":[3.3572746E1,1.343756E1,2.0135187E1,8.655748E0,1.147944E1,4.764181E0,3.8915672E0,3.0017648E0,1.7624161E0,1.9939876E0,1.0077773E0],"tree_param":{"num_deleted":"0","num_feature":"10","num_nodes":"11","size_leaf_vector":"1"}},{"base_weights":[-9.376156E-3,-9.2717834E-2,6.0791725E-1,1.5987675E-1,9.156315E-2,7.585334E-2,-2.814779E-1,5.646291E-2,-8.7578005E-1,-1.1494713E-1,-1.5117171E-2],"categories":[],"categories_nodes":[],"categories_segments":[],"categories_sizes":[],"default_left":[0,0,0,0,0,0,0,0,0,0,0],"id":52,"left_children":[1,-1,3,5,-1,-1,7,-1,9,-1,-1],"loss_changes":[1.8669027E1,0E0,2.5710626E0,2.6540794E0,0E0,0E0,3.5348494E0,0E0,6.0833406E-1,0E0,0E0],"parents":[2147483647,0,0,2,2,3,3,6,6,8,8],"right_children":[2,-1,4,6,-1,-1,8,-1,10,-1,-1],"split_conditions":[2.4456E2,-9.2717834E-2,7.4642E2,3.578E1,9.156315E-2,7.585334E-2,3E0,5.646291E-2,4.123E1,-1.1494713E-1,-1.5117171E-2],"split_indices":[0,0,0,2,0,0,1,0,5,0,0],"split_type":[0,0,0,0,0,0,0,0,0,0,0],"sum_hessian":[3.0957066E1,1.2246604E1,1.871046E1,8.236886E0,1.0473575E1,3.190551E0,5.046335E0,2.102681E0,2.9436543E0,1.7110429E0,1.2326114E0],"tree_param":{"num_deleted":"0","num_feature":"10","num_nodes":"11","size_leaf_vector":"1"}},{"base_weights":[-9.0887295E-3,-8.343293E-1,6.58007E-1,1.3734126E-2,-9.255535E-2,2.1013875E-1,9.078463E-2,-3.1588984E-1,7.4954234E-2,-1.098753E-1,3.111856E-1,5.576412E-2,-1.1570354E-2],"categories":[],"categories_nodes":[],"categories_segments":[],"categories_sizes":[],"default_left":[0,0,0,0,0,0,0,0,0,0,0,0,0],"id":53,"left_children":[1,3,5,-1,-1,7,-1,9,-1,-1,11,-1,-1],"loss_changes":[1.6840229E1,1.3387604E0,1.7028756E0,0E0,0E0,2.325461E0,0E0,2.5168283E0,0E0,0E0,4.0531647E-1,0E0,0E0],"parents":[2147483647,0,0,1,1,2,2,5,5,7,7,10,10],"right_children":[2,4,6,-1,-1,8,-1,10,-1,-1,12,-1,-1],"split_conditions":[2.9167E2,3.7E1,7.4642E2,1.3734126E-2,-9.255535E-2,4.174E1,9.078463E-2,1.7E1,7.4954234E-2,-1.098753E-1,2E0,5.576412E-2,-1.1570354E-2],"split_indices":[0,4,0,0,0,5,0,7,0,0,1,0,0],"split_type":[0,0,0,0,0,0,0,0,0,0,0,0,0],"sum_hessian":[2.8592743E1,1.2669305E1,1.5923439E1,1.0439692E0,1.1625336E1,6.36123E0,9.562209E0,3.4303303E0,2.9308999E0,1.1911145E0,2.2392159E0,1.2254417E0,1.013774E0],"tree_param":{"num_deleted":"0","num_feature":"10","num_nodes":"13","size_leaf_vector":"1"}},{"base_weights":[-8.073552E-3,-9.130994E-2,5.817302E-1,1.491928E-1,8.995782E-2,-3.167678E-1,6.8011604E-2,5.9371706E-2,-8.507426E-1,-1.0585532E-1,-1.719796E-2],"categories":[],"categories_nodes":[],"categories_segments":[],"categories_sizes":[],"default_left":[0,0,0,0,0,0,0,0,0,0,0],"id":54,"left_children":[1,-1,3,5,-1,7,-1,-1,9,-1,-1],"loss_changes":[1.5189134E1,0E0,2.2354584E0,2.3181925E0,0E0,3.0376282E0,0E0,0E0,3.3906984E-1,0E0,0E0],"parents":[2147483647,0,0,2,2,3,3,5,5,8,8],"right_children":[2,-1,4,6,-1,8,-1,-1,10,-1,-1],"split_conditions":[2.4456E2,-9.130994E-2,7.4642E2,2E0,8.995782E-2,3.578E1,6.8011604E-2,5.9371706E-2,4.123E1,-1.0585532E-1,-1.719796E-2],"split_indices":[0,0,0,9,0,2,0,0,5,0,0],"split_type":[0,0,0,0,0,0,0,0,0,0,0],"sum_hessian":[2.6460278E1,1.0223958E1,1.623632E1,7.4997764E0,8.736544E0,4.209077E0,3.2906995E0,1.514614E0,2.694463E0,1.6345078E0,1.0599552E0],"tree_param":{"num_deleted":"0","num_feature":"10","num_nodes":"11","size_leaf_vector":"1"}},{"base_weights":[-7.741844E-3,-9.052339E-2,5.666717E-1,1.408913E-1,8.908155E-2,7.222952E-2,-2.7196E-1,5.26977E-2,-8.0742097E-1,-1.6436884E-2,-1.02276854E-1],"categories":[],"categories_nodes":[],"categories_segments":[],"categories_sizes":[],"default_left":[0,0,0,0,0,0,0,0,0,0,0],"id":55,"left_children":[1,-1,3,5,-1,-1,7,-1,9,-1,-1],"loss_changes":[1.3658062E1,0E0,2.1051373E0,2.1584334E0,0E0,0E0,2.7810593E0,0E0,3.4310603E-1,0E0,0E0],"parents":[2147483647,0,0,2,2,3,3,6,6,8,8],"right_children":[2,-1,4,6,-1,-1,8,-1,10,-1,-1],"split_conditions":[2.4456E2,-9.052339E-2,7.4642E2,3.578E1,8.908155E-2,7.222952E-2,3E0,5.26977E-2,4E0,-1.6436884E-2,-1.02276854E-1],"split_indices":[0,0,0,2,0,0,1,0,1,0,0],"split_type":[0,0,0,0,0,0,0,0,0,0,0],"sum_hessian":[2.4498127E1,9.335677E0,1.516245E1,7.173857E0,7.9885926E0,2.6676173E0,4.50624E0,1.8146007E0,2.6916392E0,1.117608E0,1.5740312E0],"tree_param":{"num_deleted":"0","num_feature":"10","num_nodes":"11","size_leaf_vector":"1"}},{"base_weights":[-7.315198E-3,-8.063316E-1,6.157886E-1,4.559582E-3,-9.01959E-2,1.863036E-1,8.815454E-2,-3.0779803E-1,7.155468E-2,5.1312275E-2,-7.5088394E-1,-1.4806854E-2,-9.988224E-2],"categories":[],"categories_nodes":[],"categories_segments":[],"categories_sizes":[],"default_left":[0,0,0,0,0,0,0,0,0,0,0,0,0],"id":56,"left_children":[1,3,5,-1,-1,7,-1,9,-1,-1,11,-1,-1],"loss_changes":[1.2299751E1,9.226413E-1,1.4208045E0,0E0,0E0,1.9399405E0,0E0,1.8767242E0,0E0,0E0,3.1078887E-1,0E0,0E0],"parents":[2147483647,0,0,1,1,2,2,5,5,7,7,10,10],"right_children":[2,4,6,-1,-1,8,-1,10,-1,-1,12,-1,-1],"split_conditions":[2.9167E2,4E1,7.4642E2,4.559582E-3,-9.01959E-2,4.174E1,8.815454E-2,2E0,7.155468E-2,5.1312275E-2,7.713E1,-1.4806854E-2,-9.988224E-2],"split_indices":[0,4,0,0,0,5,0,1,0,0,2,0,0],"split_type":[0,0,0,0,0,0,0,0,0,0,0,0,0],"sum_hessian":[2.2707428E1,9.820448E0,1.288698E1,1.0438825E0,8.776566E0,5.5762796E0,7.310701E0,3.1002777E0,2.476002E0,1.0313652E0,2.0689125E0,1.0684289E0,1.0004836E0],"tree_param":{"num_deleted":"0","num_feature":"10","num_nodes":"13","size_leaf_vector":"1"}},{"base_weights":[-6.564614E-3,-8.885174E-2,5.4000777E-1,1.3192537E-1,8.7176315E-2,6.9957525E-2,-2.6540175E-1,-7.819045E-1,4.9542867E-2,-9.602103E-2,-1.7543495E-2],"categories":[],"categories_nodes":[],"categories_segments":[],"categories_sizes":[],"default_left":[0,0,0,0,0,0,0,0,0,0,0],"id":57,"left_children":[1,-1,3,5,-1,-1,7,9,-1,-1,-1],"loss_changes":[1.1141072E1,0E0,1.817781E0,1.8953019E0,0E0,0E0,2.4245276E0,2.0739079E-1,0E0,0E0,0E0],"parents":[2147483647,0,0,2,2,3,3,6,6,7,7],"right_children":[2,-1,4,6,-1,-1,8,10,-1,-1,-1],"split_conditions":[2.4456E2,-8.885174E-2,7.4642E2,3.578E1,8.7176315E-2,6.9957525E-2,2E0,4.076E1,4.9542867E-2,-9.602103E-2,-1.7543495E-2],"split_indices":[0,0,0,2,0,0,9,5,0,0,0],"split_type":[0,0,0,0,0,0,0,0,0,0,0],"sum_hessian":[2.1116465E1,7.8400655E0,1.3276399E1,6.5800877E0,6.6963115E0,2.3961186E0,4.183969E0,2.4756398E0,1.7083293E0,1.4624052E0,1.0132346E0],"tree_param":{"num_deleted":"0","num_feature":"10","num_nodes":"11","size_leaf_vector":"1"}},{"base_weights":[-6.1598946E-3,-8.791711E-2,5.249522E-1,1.24568544E-1,8.6146235E-2,-2.9949424E-1,6.246082E-2,-7.442684E-1,5.4320443E-2,-1.1058676E-2,-9.594074E-2],"categories":[],"categories_nodes":[],"categories_segments":[],"categories_sizes":[],"default_left":[0,0,0,0,0,0,0,0,0,0,0],"id":58,"left_children":[1,-1,3,5,-1,7,-1,9,-1,-1,-1],"loss_changes":[1.00252075E1,0E0,1.70491E0,1.7374208E0,0E0,2.1404614E0,0E0,3.6475968E-1,0E0,0E0,0E0],"parents":[2147483647,0,0,2,2,3,3,5,5,7,7],"right_children":[2,-1,4,6,-1,8,-1,10,-1,-1,-1],"split_conditions":[2.4456E2,-8.791711E-2,7.4642E2,2E0,8.6146235E-2,6.137E1,6.246082E-2,6.636E1,5.4320443E-2,-1.1058676E-2,-9.594074E-2],"split_indices":[0,0,0,9,0,5,0,2,0,0,0],"split_type":[0,0,0,0,0,0,0,0,0,0,0],"sum_hessian":[1.9626204E1,7.1757617E0,1.2450441E1,6.311329E0,6.1391125E0,3.6321301E0,2.679199E0,2.453816E0,1.1783142E0,1.0056744E0,1.4481416E0],"tree_param":{"num_deleted":"0","num_feature":"10","num_nodes":"11","size_leaf_vector":"1"}},{"base_weights":[-5.5698766E-3,-7.749311E-1,5.745754E-1,-1.3469311E-3,-8.74167E-2,1.6859889E-1,8.5065775E-2,-2.831597E-1,6.779702E-2,-8.686352E-2,2.5603151E-2],"categories":[],"categories_nodes":[],"categories_segments":[],"categories_sizes":[],"default_left":[0,0,0,0,0,0,0,0,0,0,0],"id":59,"left_children":[1,3,5,-1,-1,7,-1,9,-1,-1,-1],"loss_changes":[9.046952E0,6.4642954E-1,1.1523776E0,0E0,0E0,1.5558186E0,0E0,1.4366578E0,0E0,0E0,0E0],"parents":[2147483647,0,0,1,1,2,2,5,5,7,7],"right_children":[2,4,6,-1,-1,8,-1,10,-1,-1,-1],"split_conditions":[2.9167E2,8.25E0,7.4642E2,-1.3469311E-3,-8.74167E-2,4.174E1,8.5065775E-2,1.7E1,6.779702E-2,-8.686352E-2,2.5603151E-2],"split_indices":[0,2,0,0,0,5,0,7,0,0,0],"split_type":[0,0,0,0,0,0,0,0,0,0,0],"sum_hessian":[1.8271566E1,7.7105055E0,1.0561061E1,1.0199451E0,6.6905603E0,4.926852E0,5.6342087E0,2.8464506E0,2.080402E0,1.0717283E0,1.7747221E0],"tree_param":{"num_deleted":"0","num_feature":"10","num_nodes":"11","size_leaf_vector":"1"}},{"base_weights":[-5.258255E-3,-8.597462E-2,4.9864107E-1,1.1703104E-1,8.393383E-2,6.6589E-2,-2.6015162E-1,4.7747303E-2,-7.246155E-1,-8.657005E-2,-1.9955492E-2],"categories":[],"categories_nodes":[],"categories_segments":[],"categories_sizes":[],"default_left":[0,0,0,0,0,0,0,0,0,0,0],"id":60,"left_children":[1,-1,3,5,-1,-1,7,-1,9,-1,-1],"loss_changes":[8.206713E0,0E0,1.4614296E0,1.5851809E0,0E0,0E0,1.9772562E0,0E0,7.310438E-2,0E0,0E0],"parents":[2147483647,0,0,2,2,3,3,6,6,8,8],"right_children":[2,-1,4,6,-1,-1,8,-1,10,-1,-1],"split_conditions":[2.4456E2,-8.597462E-2,7.4642E2,3.578E1,8.393383E-2,6.6589E-2,3E0,4.7747303E-2,3.76E1,-8.657005E-2,-1.9955492E-2],"split_indices":[0,0,0,2,0,0,1,0,5,0,0],"split_type":[0,0,0,0,0,0,0,0,0,0,0],"sum_hessian":[1.7064198E1,6.0680714E0,1.0996126E1,5.820346E0,5.1757803E0,2.0588992E0,3.7614467E0,1.4425286E0,2.3189182E0,1.3164282E0,1.00249E0],"tree_param":{"num_deleted":"0","num_feature":"10","num_nodes":"11","size_leaf_vector":"1"}},{"base_weights":[-4.7141537E-3,-8.4889315E-2,4.8405966E-1,1.1066487E-1,8.2754806E-2,-2.942927E-1,5.9134323E-2,4.9775086E-2,-7.089467E-2],"categories":[],"categories_nodes":[],"categories_segments":[],"categories_sizes":[],"default_left":[0,0,0,0,0,0,0,0,0],"id":61,"left_children":[1,-1,3,5,-1,7,-1,-1,-1],"loss_changes":[7.394592E0,0E0,1.3649075E0,1.4578733E0,0E0,1.7478321E0,0E0,0E0,0E0],"parents":[2147483647,0,0,2,2,3,3,5,5],"right_children":[2,-1,4,6,-1,8,-1,-1,-1],"split_conditions":[2.4456E2,-8.4889315E-2,7.4642E2,2E0,8.2754806E-2,3.578E1,5.9134323E-2,4.9775086E-2,-7.089467E-2],"split_indices":[0,0,0,9,0,2,0,0,0],"split_type":[0,0,0,0,0,0,0,0,0],"sum_hessian":[1.5925508E1,5.569478E0,1.03560295E1,5.595513E0,4.760516E0,3.2474153E0,2.3480976E0,1.047037E0,2.2003784E0],"tree_param":{"num_deleted":"0","num_feature":"10","num_nodes":"9","size_leaf_vector":"1"}},{"base_weights":[-2.2479866E-3,-7.3992467E-1,5.3477126E-1,-6.288089E-3,-8.406588E-2,6.5644914E-1,-1.8664604E-2,3.7918013E-1,7.940351E-2,-1.8790154E-2,6.965448E-2],"categories":[],"categories_nodes":[],"categories_segments":[],"categories_sizes":[],"default_left":[0,0,0,0,0,0,0,0,0,0,0],"id":62,"left_children":[1,3,5,-1,-1,7,-1,9,-1,-1,-1],"loss_changes":[6.6988893E0,4.3292546E-1,9.817593E-1,0E0,0E0,2.6884317E-2,0E0,9.884887E-1,0E0,0E0,0E0],"parents":[2147483647,0,0,1,1,2,2,5,5,7,7],"right_children":[2,4,6,-1,-1,8,-1,10,-1,-1,-1],"split_conditions":[2.9167E2,1.02E1,2.49E2,-6.288089E-3,-8.406588E-2,7.4642E2,-1.8664604E-2,3.015E1,7.940351E-2,-1.8790154E-2,6.965448E-2],"split_indices":[0,2,4,0,0,0,0,5,0,0,0],"split_type":[0,0,0,0,0,0,0,0,0,0,0],"sum_hessian":[1.491128E1,6.122824E0,8.788456E0,1.0033616E0,5.1194625E0,7.59714E0,1.191316E0,3.7652328E0,3.831907E0,1.4974508E0,2.2677817E0],"tree_param":{"num_deleted":"0","num_feature":"10","num_nodes":"11","size_leaf_vector":"1"}},{"base_weights":[-7.4885297E-4,-8.269375E-2,4.591344E-1,1.0197778E-1,8.0495335E-2,6.2229484E-2,-2.5931925E-1,-6.939687E-1,5.306474E-2,-1.8407673E-2,-8.4198266E-2],"categories":[],"categories_nodes":[],"categories_segments":[],"categories_sizes":[],"default_left":[0,0,0,0,0,0,0,0,0,0,0],"id":63,"left_children":[1,-1,3,5,-1,-1,7,9,-1,-1,-1],"loss_changes":[6.107321E0,0E0,1.1934392E0,1.3316759E0,0E0,0E0,1.8721616E0,9.0950966E-2,0E0,0E0,0E0],"parents":[2147483647,0,0,2,2,3,3,6,6,7,7],"right_children":[2,-1,4,6,-1,-1,8,10,-1,-1,-1],"split_conditions":[2.4456E2,-8.269375E-2,7.4642E2,4.5E1,8.0495335E-2,6.2229484E-2,6.137E1,7.3E1,5.306474E-2,-1.8407673E-2,-8.4198266E-2],"split_indices":[0,0,0,4,0,0,5,2,0,0,0],"split_type":[0,0,0,0,0,0,0,0,0,0,0],"sum_hessian":[1.4074722E1,4.7475376E0,9.327185E0,5.225379E0,4.101805E0,1.8453835E0,3.3799956E0,2.2587337E0,1.121262E0,1.0129331E0,1.2458005E0],"tree_param":{"num_deleted":"0","num_feature":"10","num_nodes":"11","size_leaf_vector":"1"}},{"base_weights":[3.0702668E-5,-8.146719E-2,4.4633827E-1,9.751994E-2,7.918962E-2,-2.847293E-1,5.6122478E-2,3.962284E-2,-6.483822E-2],"categories":[],"categories_nodes":[],"categories_segments":[],"categories_sizes":[],"default_left":[0,0,0,0,0,0,0,0,0],"id":64,"left_children":[1,-1,3,5,-1,7,-1,-1,-1],"loss_changes":[5.518405E0,0E0,1.1046693E0,1.2268558E0,0E0,1.2383428E0,0E0,0E0,0E0],"parents":[2147483647,0,0,2,2,3,3,5,5],"right_children":[2,-1,4,6,-1,8,-1,-1,-1],"split_conditions":[2.4456E2,-8.146719E-2,7.4642E2,2E0,7.918962E-2,4.996E1,5.6122478E-2,3.962284E-2,-6.483822E-2],"split_indices":[0,0,0,9,0,2,0,0,0],"split_type":[0,0,0,0,0,0,0,0,0],"sum_hessian":[1.3176769E1,4.371517E0,8.805252E0,5.020048E0,3.785204E0,2.9632769E0,2.0567713E0,1.0004004E0,1.9628766E0],"tree_param":{"num_deleted":"0","num_feature":"10","num_nodes":"9","size_leaf_vector":"1"}},{"base_weights":[2.1851321E-3,-8.019602E-2,4.3328997E-1,9.557671E-2,7.7845864E-2,6.0445335E-2,-2.3504435E-1,4.4963762E-2,-6.6521086E-2],"categories":[],"categories_nodes":[],"categories_segments":[],"categories_sizes":[],"default_left":[0,0,0,0,0,0,0,0,0],"id":65,"left_children":[1,-1,3,5,-1,-1,7,-1,-1],"loss_changes":[4.9956074E0,0E0,1.0187417E0,1.1313595E0,0E0,0E0,1.5609463E0,0E0,0E0],"parents":[2147483647,0,0,2,2,3,3,6,6],"right_children":[2,-1,4,6,-1,-1,8,-1,-1],"split_conditions":[2.4456E2,-8.019602E-2,7.4642E2,3.578E1,7.7845864E-2,6.0445335E-2,3E0,4.4963762E-2,-6.6521086E-2],"split_indices":[0,0,0,2,0,0,1,0,0],"split_type":[0,0,0,0,0,0,0,0,0],"sum_hessian":[1.2407891E1,4.0301523E0,8.377738E0,4.8800206E0,3.4977179E0,1.5957226E0,3.2842982E0,1.2497878E0,2.0345104E0],"tree_param":{"num_deleted":"0","num_feature":"10","num_nodes":"9","size_leaf_vector":"1"}},{"base_weights":[5.004693E-3,-6.912377E-1,4.8388094E-1,-1.3266007E-2,-7.8474425E-2,6.0773385E-1,-1.8919745E-2,3.3168954E-1,7.4620225E-2,6.804097E-2,-3.58094E-2],"categories":[],"categories_nodes":[],"categories_segments":[],"categories_sizes":[],"default_left":[0,0,0,0,0,0,0,0,0,0,0],"id":66,"left_children":[1,3,5,-1,-1,7,-1,9,-1,-1,-1],"loss_changes":[4.5599446E0,1.8715096E-1,7.899711E-1,0E0,0E0,2.2963047E-2,0E0,1.2452534E0,0E0,0E0,0E0],"parents":[2147483647,0,0,1,1,2,2,5,5,7,7],"right_children":[2,4,6,-1,-1,8,-1,10,-1,-1,-1],"split_conditions":[2.9167E2,5.9E1,2.49E2,-1.3266007E-2,-7.8474425E-2,3.015E1,-1.8919745E-2,2.279E1,7.4620225E-2,6.804097E-2,-3.58094E-2],"split_indices":[0,4,4,0,0,5,0,5,0,0,0],"split_type":[0,0,0,0,0,0,0,0,0,0,0],"sum_hessian":[1.1673341E1,4.5763245E0,7.097016E0,1.0030653E0,3.573259E0,6.0760474E0,1.0209684E0,3.163952E0,2.9120955E0,2.1105518E0,1.0534002E0],"tree_param":{"num_deleted":"0","num_feature":"10","num_nodes":"11","size_leaf_vector":"1"}},{"base_weights":[4.59678E-3,-7.7713296E-2,4.1118446E-1,7.957917E-2,7.563122E-2,-2.8393608E-1,5.282863E-2,-7.270523E-2,1.9605337E-2],"categories":[],"categories_nodes":[],"categories_segments":[],"categories_sizes":[],"default_left":[0,0,0,0,0,0,0,0,0],"id":67,"left_children":[1,-1,3,5,-1,7,-1,-1,-1],"loss_changes":[4.154378E0,0E0,9.23025E-1,1.0469431E0,0E0,9.270051E-1,0E0,0E0,0E0],"parents":[2147483647,0,0,2,2,3,3,5,5],"right_children":[2,-1,4,6,-1,8,-1,-1,-1],"split_conditions":[2.4456E2,-7.7713296E-2,7.4642E2,2E0,7.563122E-2,4.076E1,5.282863E-2,-7.270523E-2,1.9605337E-2],"split_indices":[0,0,0,9,0,5,0,0,0],"split_type":[0,0,0,0,0,0,0,0,0],"sum_hessian":[1.1065231E1,3.4741907E0,7.5910406E0,4.4989467E0,3.092094E0,2.688279E0,1.8106675E0,1.1301879E0,1.558091E0],"tree_param":{"num_deleted":"0","num_feature":"10","num_nodes":"9","size_leaf_vector":"1"}},{"base_weights":[4.070842E-3,-6.630245E-1,4.560273E-1,-1.5000813E-2,-7.5500175E-2,1.12547725E-1,7.420342E-2,-2.743509E-1,5.8102604E-2,-2.816104E-3,-3.801453E-2],"categories":[],"categories_nodes":[],"categories_segments":[],"categories_sizes":[],"default_left":[0,0,0,0,0,0,0,0,0,0,0],"id":68,"left_children":[1,3,5,-1,-1,7,-1,9,-1,-1,-1],"loss_changes":[3.7528574E0,1.24072075E-1,6.4490306E-1,0E0,0E0,9.8369735E-1,0E0,7.185881E-2,0E0,0E0,0E0],"parents":[2147483647,0,0,1,1,2,2,5,5,7,7],"right_children":[2,4,6,-1,-1,8,-1,10,-1,-1,-1],"split_conditions":[2.9167E2,1.587E1,7.4642E2,-1.5000813E-2,-7.5500175E-2,4.174E1,7.420342E-2,4.9E1,5.8102604E-2,-2.816104E-3,-3.801453E-2],"split_indices":[0,2,0,0,0,5,0,4,0,0,0],"split_type":[0,0,0,0,0,0,0,0,0,0,0],"sum_hessian":[1.0444519E1,4.0296617E0,6.414858E0,1.01261E0,3.0170517E0,3.5477297E0,2.867128E0,2.1699927E0,1.377737E0,1.0327978E0,1.137195E0],"tree_param":{"num_deleted":"0","num_feature":"10","num_nodes":"11","size_leaf_vector":"1"}},{"base_weights":[4.0709283E-3,-7.517397E-2,3.869634E-1,7.6320976E-2,7.2752655E-2,5.6638982E-2,-2.3963203E-1,4.0904526E-2,-6.247002E-2],"categories":[],"categories_nodes":[],"categories_segments":[],"categories_sizes":[],"default_left":[0,0,0,0,0,0,0,0,0],"id":69,"left_children":[1,-1,3,5,-1,-1,7,-1,-1],"loss_changes":[3.4576447E0,0E0,7.8271174E-1,9.5031583E-1,0E0,0E0,1.2300351E0,0E0,0E0],"parents":[2147483647,0,0,2,2,3,3,6,6],"right_children":[2,-1,4,6,-1,-1,8,-1,-1],"split_conditions":[2.4456E2,-7.517397E-2,7.4642E2,3.578E1,7.2752655E-2,5.6638982E-2,3E0,4.0904526E-2,-6.247002E-2],"split_indices":[0,0,0,2,0,0,1,0,0],"split_type":[0,0,0,0,0,0,0,0,0],"sum_hessian":[9.942684E0,3.01934E0,6.9233446E0,4.2608976E0,2.662447E0,1.3595246E0,2.901373E0,1.0575614E0,1.8438115E0],"tree_param":{"num_deleted":"0","num_feature":"10","num_nodes":"9","size_leaf_vector":"1"}},{"base_weights":[7.0216805E-3,-7.373981E-2,3.7826303E-1,7.769225E-2,7.128096E-2,-2.7229348E-1,5.0616264E-2,-6.7635305E-2,1.7788537E-2],"categories":[],"categories_nodes":[],"categories_segments":[],"categories_sizes":[],"default_left":[0,0,0,0,0,0,0,0,0],"id":70,"left_children":[1,-1,3,5,-1,7,-1,-1,-1],"loss_changes":[3.1541307E0,0E0,7.0912635E-1,9.066802E-1,0E0,7.5190955E-1,0E0,0E0,0E0],"parents":[2147483647,0,0,2,2,3,3,5,5],"right_children":[2,-1,4,6,-1,8,-1,-1,-1],"split_conditions":[2.4456E2,-7.373981E-2,7.4642E2,2E0,7.128096E-2,4.076E1,5.0616264E-2,-6.7635305E-2,1.7788537E-2],"split_indices":[0,0,0,9,0,5,0,0,0],"split_type":[0,0,0,0,0,0,0,0,0],"sum_hessian":[9.403845E0,2.8009753E0,6.6028695E0,4.1271214E0,2.475748E0,2.4722347E0,1.6548867E0,1.0380867E0,1.4341481E0],"tree_param":{"num_deleted":"0","num_feature":"10","num_nodes":"9","size_leaf_vector":"1"}},{"base_weights":[6.407566E-3,-6.2368864E-1,4.2208427E-1,-1.7682325E-2,-7.048144E-2,1.09264635E-1,6.9797926E-2,-2.5362802E-1,5.533835E-2,-3.2249875E-2,-6.0052816E-3],"categories":[],"categories_nodes":[],"categories_segments":[],"categories_sizes":[],"default_left":[0,0,0,0,0,0,0,0,0,0,0],"id":71,"left_children":[1,3,5,-1,-1,7,-1,9,-1,-1,-1],"loss_changes":[2.8603458E0,3.2886863E-2,4.9083102E-1,0E0,0E0,8.277225E-1,0E0,2.1065608E-2,0E0,0E0,0E0],"parents":[2147483647,0,0,1,1,2,2,5,5,7,7],"right_children":[2,4,6,-1,-1,8,-1,10,-1,-1,-1],"split_conditions":[2.9167E2,1.806E1,7.4642E2,-1.7682325E-2,-7.048144E-2,4.174E1,6.9797926E-2,7.867E1,5.533835E-2,-3.2249875E-2,-6.0052816E-3],"split_indices":[0,2,0,0,0,5,0,2,0,0,0],"split_type":[0,0,0,0,0,0,0,0,0,0,0],"sum_hessian":[8.9157505E0,3.3449497E0,5.570801E0,1.002499E0,2.3424509E0,3.264936E0,2.3058648E0,2.0328217E0,1.2321143E0,1.0081327E0,1.024689E0],"tree_param":{"num_deleted":"0","num_feature":"10","num_nodes":"11","size_leaf_vector":"1"}},{"base_weights":[6.0154246E-3,-7.113534E-2,3.5594875E-1,7.442989E-2,6.8300866E-2,5.4192908E-2,-2.279581E-1,-5.760306E-2,3.4988385E-2],"categories":[],"categories_nodes":[],"categories_segments":[],"categories_sizes":[],"default_left":[0,0,0,0,0,0,0,0,0],"id":72,"left_children":[1,-1,3,5,-1,-1,7,-1,-1],"loss_changes":[2.646601E0,0E0,6.0056365E-1,8.196806E-1,0E0,0E0,9.445526E-1,0E0,0E0],"parents":[2147483647,0,0,2,2,3,3,6,6],"right_children":[2,-1,4,6,-1,-1,8,-1,-1],"split_conditions":[2.4456E2,-7.113534E-2,7.4642E2,3.578E1,6.8300866E-2,5.4192908E-2,2E0,-5.760306E-2,3.4988385E-2],"split_indices":[0,0,0,2,0,0,9,0,0],"split_type":[0,0,0,0,0,0,0,0,0],"sum_hessian":[8.534252E0,2.4594712E0,6.0747805E0,3.9244008E0,2.15038E0,1.2302461E0,2.6941547E0,1.6833163E0,1.0108384E0],"tree_param":{"num_deleted":"0","num_feature":"10","num_nodes":"9","size_leaf_vector":"1"}},{"base_weights":[8.871152E-3,-6.964988E-2,3.4779212E-1,7.539417E-2,6.680288E-2,5.2778035E-2,-2.1408485E-1,2.2484044E-2,-6.803493E-2],"categories":[],"categories_nodes":[],"categories_segments":[],"categories_sizes":[],"default_left":[0,0,0,0,0,0,0,0,0],"id":73,"left_children":[1,-1,3,5,-1,-1,7,-1,-1],"loss_changes":[2.4209387E0,0E0,5.447878E-1,7.43403E-1,0E0,0E0,8.9933366E-1,0E0,0E0],"parents":[2147483647,0,0,2,2,3,3,6,6],"right_children":[2,-1,4,6,-1,-1,8,-1,-1],"split_conditions":[2.4456E2,-6.964988E-2,7.4642E2,3.578E1,6.680288E-2,5.2778035E-2,4E0,2.2484044E-2,-6.803493E-2],"split_indices":[0,0,0,2,0,0,1,0,0],"split_type":[0,0,0,0,0,0,0,0,0],"sum_hessian":[8.1134405E0,2.2907767E0,5.822664E0,3.8139205E0,2.0087435E0,1.1669892E0,2.6469314E0,1.6301489E0,1.0167824E0],"tree_param":{"num_deleted":"0","num_feature":"10","num_nodes":"9","size_leaf_vector":"1"}},{"base_weights":[8.790236E-3,-5.850147E-2,3.9065132E-1,1.0591204E-1,6.5302856E-2,-2.3352822E-2,5.262799E-2],"categories":[],"categories_nodes":[],"categories_segments":[],"categories_sizes":[],"default_left":[0,0,0,0,0,0,0],"id":74,"left_children":[1,-1,3,5,-1,-1,-1],"loss_changes":[2.2048051E0,0E0,3.7192225E-1,6.972199E-1,0E0,0E0,0E0],"parents":[2147483647,0,0,2,2,3,3],"right_children":[2,-1,4,6,-1,-1,-1],"split_conditions":[2.9167E2,-5.850147E-2,7.4642E2,4.174E1,6.5302856E-2,-2.3352822E-2,5.262799E-2],"split_indices":[0,0,0,5,0,0,0],"split_type":[0,0,0,0,0,0,0],"sum_hessian":[7.715589E0,2.8115456E0,4.904043E0,3.0249472E0,1.8790962E0,1.9194716E0,1.1054755E0],"tree_param":{"num_deleted":"0","num_feature":"10","num_nodes":"7","size_leaf_vector":"1"}},{"base_weights":[1.2682641E-2,-6.687005E-2,3.313255E-1,6.2266868E-2,5.07139E-2,-2.6988832E-2,4.4337478E-2],"categories":[],"categories_nodes":[],"categories_segments":[],"categories_sizes":[],"default_left":[0,0,0,0,0,0,0],"id":75,"left_children":[1,-1,3,-1,5,-1,-1],"loss_changes":[2.0505664E0,0E0,4.9234694E-1,0E0,6.6765887E-1,0E0,0E0],"parents":[2147483647,0,0,2,2,4,4],"right_children":[2,-1,4,-1,6,-1,-1],"split_conditions":[2.4456E2,-6.687005E-2,5.557E1,6.2266868E-2,2E0,-2.6988832E-2,4.4337478E-2],"split_indices":[0,0,2,0,9,0,0],"split_type":[0,0,0,0,0,0,0],"sum_hessian":[7.424038E0,2.0155067E0,5.408531E0,2.0554762E0,3.3530552E0,2.0180297E0,1.3350254E0],"tree_param":{"num_deleted":"0","num_feature":"10","num_nodes":"7","size_leaf_vector":"1"}},{"base_weights":[1.3407384E-2,-6.5370224E-2,3.1903607E-1,6.373729E-2,6.30547E-2,5.0308187E-2,-2.2419545E-1,-4.133916E-2,8.62107E-3],"categories":[],"categories_nodes":[],"categories_segments":[],"categories_sizes":[],"default_left":[0,0,0,0,0,0,0,0,0],"id":76,"left_children":[1,-1,3,5,-1,-1,7,-1,-1],"loss_changes":[1.8680304E0,0E0,4.571736E-1,6.883095E-1,0E0,0E0,2.37666E-1,0E0,0E0],"parents":[2147483647,0,0,2,2,3,3,6,6],"right_children":[2,-1,4,6,-1,-1,8,-1,-1],"split_conditions":[2.4456E2,-6.5370224E-2,7.4642E2,4.5E1,6.30547E-2,5.0308187E-2,4.123E1,-4.133916E-2,8.62107E-3],"split_indices":[0,0,0,4,0,0,5,0,0],"split_type":[0,0,0,0,0,0,0,0,0],"sum_hessian":[7.1391597E0,1.8852535E0,5.2539062E0,3.5495114E0,1.7043948E0,1.1094412E0,2.4400702E0,1.3098966E0,1.1301736E0],"tree_param":{"num_deleted":"0","num_feature":"10","num_nodes":"9","size_leaf_vector":"1"}},{"base_weights":[1.4522215E-2,-5.4469135E-2,3.6225456E-1,9.6143246E-2,6.1572682E-2,-2.4174234E-2,3.6128234E-2],"categories":[],"categories_nodes":[],"categories_segments":[],"categories_sizes":[],"default_left":[0,0,0,0,0,0,0],"id":77,"left_children":[1,-1,3,5,-1,-1,-1],"loss_changes":[1.7230737E0,0E0,3.0763876E-1,4.3118358E-1,0E0,0E0,0E0],"parents":[2147483647,0,0,2,2,3,3],"right_children":[2,-1,4,6,-1,-1,-1],"split_conditions":[2.9167E2,-5.4469135E-2,7.4642E2,3.564E1,6.1572682E-2,-2.4174234E-2,3.6128234E-2],"split_indices":[0,0,0,5,0,0,0],"split_type":[0,0,0,0,0,0,0],"sum_hessian":[6.846257E0,2.407758E0,4.4384995E0,2.838142E0,1.6003575E0,1.2866788E0,1.5514631E0],"tree_param":{"num_deleted":"0","num_feature":"10","num_nodes":"7","size_leaf_vector":"1"}},{"base_weights":[1.6129369E-2,-6.26068E-2,3.0244017E-1,5.897659E-2,3.3267483E-2,-2.6911551E-2,4.163225E-2],"categories":[],"categories_nodes":[],"categories_segments":[],"categories_sizes":[],"default_left":[0,0,0,0,0,0,0],"id":78,"left_children":[1,-1,3,-1,5,-1,-1],"loss_changes":[1.588699E0,0E0,4.3963563E-1,0E0,5.899148E-1,0E0,0E0],"parents":[2147483647,0,0,2,2,4,4],"right_children":[2,-1,4,-1,6,-1,-1],"split_conditions":[2.4456E2,-6.26068E-2,5.557E1,5.897659E-2,2E0,-2.6911551E-2,4.163225E-2],"split_indices":[0,0,2,0,9,0,0],"split_type":[0,0,0,0,0,0,0],"sum_hessian":[6.6106277E0,1.6725078E0,4.93812E0,1.8124288E0,3.1256912E0,1.9130121E0,1.2126791E0],"tree_param":{"num_deleted":"0","num_feature":"10","num_nodes":"7","size_leaf_vector":"1"}},{"base_weights":[1.6538003E-2,-5.1580973E-2,3.4221932E-1,8.3336316E-2,5.941394E-2,-2.3087714E-2,3.3714756E-2],"categories":[],"categories_nodes":[],"categories_segments":[],"categories_sizes":[],"default_left":[0,0,0,0,0,0,0],"id":79,"left_children":[1,-1,3,5,-1,-1,-1],"loss_changes":[1.4561542E0,0E0,2.8833908E-1,3.7435547E-1,0E0,0E0,0E0],"parents":[2147483647,0,0,2,2,3,3],"right_children":[2,-1,4,6,-1,-1,-1],"split_conditions":[2.9167E2,-5.1580973E-2,7.4642E2,3.564E1,5.941394E-2,-2.3087714E-2,3.3714756E-2],"split_indices":[0,0,0,5,0,0,0],"split_type":[0,0,0,0,0,0,0],"sum_hessian":[6.3807006E0,2.2003295E0,4.180371E0,2.7180252E0,1.4623458E0,1.2548741E0,1.4631511E0],"tree_param":{"num_deleted":"0","num_feature":"10","num_nodes":"7","size_leaf_vector":"1"}},{"base_weights":[1.8017082E-2,-5.9895296E-2,2.8531832E-1,5.6681808E-2,2.7479121E-2,4.2099327E-2,-2.5043517E-2],"categories":[],"categories_nodes":[],"categories_segments":[],"categories_sizes":[],"default_left":[0,0,0,0,0,0,0],"id":80,"left_children":[1,-1,3,-1,5,-1,-1],"loss_changes":[1.3545022E0,0E0,3.9704052E-1,0E0,5.448608E-1,0E0,0E0],"parents":[2147483647,0,0,2,2,4,4],"right_children":[2,-1,4,-1,6,-1,-1],"split_conditions":[2.4456E2,-5.9895296E-2,5.557E1,5.6681808E-2,3E0,4.2099327E-2,-2.5043517E-2],"split_indices":[0,0,2,0,1,0,0],"split_type":[0,0,0,0,0,0,0],"sum_hessian":[6.1770096E0,1.4921559E0,4.6848536E0,1.6667813E0,3.0180724E0,1.036129E0,1.9819434E0],"tree_param":{"num_deleted":"0","num_feature":"10","num_nodes":"7","size_leaf_vector":"1"}},{"base_weights":[1.8742967E-2,-5.844746E-2,2.7584928E-1,4.411198E-2,5.746913E-2,-2.6804088E-2,4.3172367E-2],"categories":[],"categories_nodes":[],"categories_segments":[],"categories_sizes":[],"default_left":[0,0,0,0,0,0,0],"id":81,"left_children":[1,-1,3,5,-1,-1,-1],"loss_changes":[1.2431755E0,0E0,3.6043966E-1,6.264107E-1,0E0,0E0,0E0],"parents":[2147483647,0,0,2,2,3,3],"right_children":[2,-1,4,6,-1,-1,-1],"split_conditions":[2.4456E2,-5.844746E-2,7.4642E2,2E0,5.746913E-2,-2.6804088E-2,4.3172367E-2],"split_indices":[0,0,0,9,0,0,0],"split_type":[0,0,0,0,0,0,0],"sum_hessian":[5.9762163E0,1.4054643E0,4.570752E0,3.2207942E0,1.3499578E0,1.9549265E0,1.2658676E0],"tree_param":{"num_deleted":"0","num_feature":"10","num_nodes":"7","size_leaf_vector":"1"}},{"base_weights":[1.9735062E-2,-4.7994375E-2,3.1744033E-1,6.1720256E-2,5.6983836E-2,4.650163E-2,-3.7300173E-2],"categories":[],"categories_nodes":[],"categories_segments":[],"categories_sizes":[],"default_left":[0,0,0,0,0,0,0],"id":82,"left_children":[1,-1,3,5,-1,-1,-1],"loss_changes":[1.1611619E0,0E0,2.779648E-1,7.9258084E-1,0E0,0E0,0E0],"parents":[2147483647,0,0,2,2,3,3],"right_children":[2,-1,4,6,-1,-1,-1],"split_conditions":[2.9167E2,-4.7994375E-2,4.174E1,2.796E1,5.6983836E-2,4.650163E-2,-3.7300173E-2],"split_indices":[0,0,5,5,0,0,0],"split_type":[0,0,0,0,0,0,0],"sum_hessian":[5.7815847E0,1.9300231E0,3.8515615E0,2.5313892E0,1.3201722E0,1.2770087E0,1.2543805E0],"tree_param":{"num_deleted":"0","num_feature":"10","num_nodes":"7","size_leaf_vector":"1"}},{"base_weights":[2.127824E-2,-5.5840004E-2,2.6341617E-1,5.4278374E-2,9.446381E-3,-2.611044E-2,3.705225E-2],"categories":[],"categories_nodes":[],"categories_segments":[],"categories_sizes":[],"default_left":[0,0,0,0,0,0,0],"id":83,"left_children":[1,-1,3,-1,5,-1,-1],"loss_changes":[1.0727658E0,0E0,3.7313092E-1,0E0,4.689695E-1,0E0,0E0],"parents":[2147483647,0,0,2,2,4,4],"right_children":[2,-1,4,-1,6,-1,-1],"split_conditions":[2.4456E2,-5.5840004E-2,5.557E1,5.4278374E-2,2E0,-2.611044E-2,3.705225E-2],"split_indices":[0,0,2,0,9,0,0],"split_type":[0,0,0,0,0,0,0],"sum_hessian":[5.594902E0,1.2636353E0,4.331267E0,1.5209831E0,2.8102837E0,1.7648045E0,1.0454792E0],"tree_param":{"num_deleted":"0","num_feature":"10","num_nodes":"7","size_leaf_vector":"1"}},{"base_weights":[2.1201354E-2,-4.547217E-2,3.0272874E-1,5.2853733E-2,5.507661E-2,4.4229325E-2,-3.545935E-2],"categories":[],"categories_nodes":[],"categories_segments":[],"categories_sizes":[],"default_left":[0,0,0,0,0,0,0],"id":84,"left_children":[1,-1,3,5,-1,-1,-1],"loss_changes":[9.989959E-1,0E0,2.584425E-1,6.9908947E-1,0E0,0E0,0E0],"parents":[2147483647,0,0,2,2,3,3],"right_children":[2,-1,4,6,-1,-1,-1],"split_conditions":[2.9167E2,-4.547217E-2,4.174E1,2.796E1,5.507661E-2,4.4229325E-2,-3.545935E-2],"split_indices":[0,0,5,5,0,0,0],"split_type":[0,0,0,0,0,0,0],"sum_hessian":[5.4286013E0,1.7890356E0,3.639566E0,2.417372E0,1.222194E0,1.1922716E0,1.2251003E0],"tree_param":{"num_deleted":"0","num_feature":"10","num_nodes":"7","size_leaf_vector":"1"}},{"base_weights":[2.27393E-2,-5.3328045E-2,2.507888E-1,5.254013E-2,1.9152709E-3,-3.0229276E-2,2.8960368E-2],"categories":[],"categories_nodes":[],"categories_segments":[],"categories_sizes":[],"default_left":[0,0,0,0,0,0,0],"id":85,"left_children":[1,-1,3,-1,5,-1,-1],"loss_changes":[9.28098E-1,0E0,3.4909797E-1,0E0,4.1056585E-1,0E0,0E0],"parents":[2147483647,0,0,2,2,4,4],"right_children":[2,-1,4,-1,6,-1,-1],"split_conditions":[2.4456E2,-5.3328045E-2,5.557E1,5.254013E-2,9.375E1,-3.0229276E-2,2.8960368E-2],"split_indices":[0,0,2,0,2,0,0],"split_type":[0,0,0,0,0,0,0],"sum_hessian":[5.264646E0,1.1419516E0,4.1226945E0,1.4317515E0,2.690943E0,1.2832462E0,1.407697E0],"tree_param":{"num_deleted":"0","num_feature":"10","num_nodes":"7","size_leaf_vector":"1"}},{"base_weights":[2.071229E-2,-4.3003436E-2,2.8584826E-1,4.087775E-2,5.3228702E-2,4.1953932E-2,-3.4069534E-2],"categories":[],"categories_nodes":[],"categories_segments":[],"categories_sizes":[],"default_left":[0,0,0,0,0,0,0],"id":86,"left_children":[1,-1,3,5,-1,-1,-1],"loss_changes":[8.534318E-1,0E0,2.4685287E-1,6.218424E-1,0E0,0E0,0E0],"parents":[2147483647,0,0,2,2,3,3],"right_children":[2,-1,4,6,-1,-1,-1],"split_conditions":[2.9167E2,-4.3003436E-2,4.174E1,2.796E1,5.3228702E-2,4.1953932E-2,-3.4069534E-2],"split_indices":[0,0,5,5,0,0,0],"split_type":[0,0,0,0,0,0,0],"sum_hessian":[5.1125627E0,1.6631579E0,3.4494047E0,2.314534E0,1.1348709E0,1.111759E0,1.202775E0],"tree_param":{"num_deleted":"0","num_feature":"10","num_nodes":"7","size_leaf_vector":"1"}},{"base_weights":[2.2350483E-2,-5.0923843E-2,2.3740923E-1,5.0890636E-2,-7.493746E-3,2.5447557E-2,-3.1390373E-2],"categories":[],"categories_nodes":[],"categories_segments":[],"categories_sizes":[],"default_left":[0,0,0,0,0,0,0],"id":87,"left_children":[1,-1,3,-1,5,-1,-1],"loss_changes":[8.0325E-1,0E0,3.317121E-1,0E0,3.671053E-1,0E0,0E0],"parents":[2147483647,0,0,2,2,4,4],"right_children":[2,-1,4,-1,6,-1,-1],"split_conditions":[2.4456E2,-5.0923843E-2,5.557E1,5.0890636E-2,4E0,2.5447557E-2,-3.1390373E-2],"split_indices":[0,0,2,0,1,0,0],"split_type":[0,0,0,0,0,0,0],"sum_hessian":[4.9686418E0,1.0371295E0,3.9315124E0,1.3532835E0,2.578229E0,1.4812809E0,1.0969479E0],"tree_param":{"num_deleted":"0","num_feature":"10","num_nodes":"7","size_leaf_vector":"1"}},{"base_weights":[1.9621387E-2,-4.078238E-2,2.7057663E-1,3.219802E-2,5.130999E-2,-2.41105E-2,2.7596874E-2],"categories":[],"categories_nodes":[],"categories_segments":[],"categories_sizes":[],"default_left":[0,0,0,0,0,0,0],"id":88,"left_children":[1,-1,3,5,-1,-1,-1],"loss_changes":[7.3615164E-1,0E0,2.307421E-1,2.813228E-1,0E0,0E0,0E0],"parents":[2147483647,0,0,2,2,3,3],"right_children":[2,-1,4,6,-1,-1,-1],"split_conditions":[2.9167E2,-4.078238E-2,7.4642E2,3.564E1,5.130999E-2,-2.41105E-2,2.7596874E-2],"split_indices":[0,0,0,5,0,0,0],"split_type":[0,0,0,0,0,0,0],"sum_hessian":[4.8339367E0,1.5569463E0,3.2769902E0,2.2238796E0,1.0531107E0,1.0535874E0,1.170292E0],"tree_param":{"num_deleted":"0","num_feature":"10","num_nodes":"7","size_leaf_vector":"1"}},{"base_weights":[2.0628182E-2,-3.894669E-2,2.615302E-1,2.7999036E-2,5.0245702E-2,3.9814617E-2,-3.3346325E-2],"categories":[],"categories_nodes":[],"categories_segments":[],"categories_sizes":[],"default_left":[0,0,0,0,0,0,0],"id":89,"left_children":[1,-1,3,5,-1,-1,-1],"loss_changes":[6.66457E-1,0E0,2.2215107E-1,5.5969685E-1,0E0,0E0,0E0],"parents":[2147483647,0,0,2,2,3,3],"right_children":[2,-1,4,6,-1,-1,-1],"split_conditions":[2.9167E2,-3.894669E-2,4.174E1,2.796E1,5.0245702E-2,3.9814617E-2,-3.3346325E-2],"split_indices":[0,0,5,5,0,0,0],"split_type":[0,0,0,0,0,0,0],"sum_hessian":[4.714992E0,1.5165755E0,3.198417E0,2.190943E0,1.007474E0,1.0323259E0,1.158617E0],"tree_param":{"num_deleted":"0","num_feature":"10","num_nodes":"7","size_leaf_vector":"1"}},{"base_weights":[2.23389E-2,-3.7163492E-2,2.5438097E-1,3.8520694E-3,3.7620306E-2],"categories":[],"categories_nodes":[],"categories_segments":[],"categories_sizes":[],"default_left":[0,0,0,0,0],"id":90,"left_children":[1,-1,3,-1,-1],"loss_changes":[6.060452E-1,0E0,9.371689E-2,0E0,0E0],"parents":[2147483647,0,0,2,2],"right_children":[2,-1,4,-1,-1],"split_conditions":[2.9167E2,-3.7163492E-2,3.564E1,3.8520694E-3,3.7620306E-2],"split_indices":[0,0,5,0,0],"split_type":[0,0,0,0,0],"sum_hessian":[4.595239E0,1.4803073E0,3.1149318E0,1.5985742E0,1.5163577E0],"tree_param":{"num_deleted":"0","num_feature":"10","num_nodes":"5","size_leaf_vector":"1"}},{"base_weights":[2.122426E-2,-2.1442442E-1,4.1314136E-2,-3.959894E-2,1.1029791E-2],"categories":[],"categories_nodes":[],"categories_segments":[],"categories_sizes":[],"default_left":[0,0,0,0,0],"id":91,"left_children":[1,3,-1,-1,-1],"loss_changes":[5.9801275E-1,2.8558594E-1,0E0,0E0,0E0],"parents":[2147483647,0,0,1,1],"right_children":[2,4,-1,-1,-1],"split_conditions":[2E0,4.106E1,4.1314136E-2,-3.959894E-2,1.1029791E-2],"split_indices":[9,5,0,0,0],"split_type":[0,0,0,0,0],"sum_hessian":[4.5159607E0,3.1030612E0,1.4128997E0,1.8494759E0,1.2535853E0],"tree_param":{"num_deleted":"0","num_feature":"10","num_nodes":"5","size_leaf_vector":"1"}},{"base_weights":[2.1749146E-2,-3.5636973E-2,2.4361151E-1,4.4607376E-3,3.5322662E-2],"categories":[],"categories_nodes":[],"categories_segments":[],"categories_sizes":[],"default_left":[0,0,0,0,0],"id":92,"left_children":[1,-1,3,-1,-1],"loss_changes":[5.4324746E-1,0E0,7.199772E-2,0E0,0E0],"parents":[2147483647,0,0,2,2],"right_children":[2,-1,4,-1,-1],"split_conditions":[2.9167E2,-3.5636973E-2,3.564E1,4.4607376E-3,3.5322662E-2],"split_indices":[0,0,5,0,0],"split_type":[0,0,0,0,0],"sum_hessian":[4.4408135E0,1.4179478E0,3.0228655E0,1.5733763E0,1.4494894E0],"tree_param":{"num_deleted":"0","num_feature":"10","num_nodes":"5","size_leaf_vector":"1"}},{"base_weights":[2.0646757E-2,-2.072957E-1,3.9905544E-2,-3.711992E-2,9.309745E-3],"categories":[],"categories_nodes":[],"categories_segments":[],"categories_sizes":[],"default_left":[0,0,0,0,0],"id":93,"left_children":[1,3,-1,-1,-1],"loss_changes":[5.4588324E-1,2.3195198E-1,0E0,0E0,0E0],"parents":[2147483647,0,0,1,1],"right_children":[2,4,-1,-1,-1],"split_conditions":[2E0,4.106E1,3.9905544E-2,-3.711992E-2,9.309745E-3],"split_indices":[9,5,0,0,0],"split_type":[0,0,0,0,0],"sum_hessian":[4.369643E0,3.0091867E0,1.3604563E0,1.7943981E0,1.2147887E0],"tree_param":{"num_deleted":"0","num_feature":"10","num_nodes":"5","size_leaf_vector":"1"}},{"base_weights":[2.114872E-2,-3.422452E-2,2.3362033E-1,3.7285622E-2,5.5325916E-3],"categories":[],"categories_nodes":[],"categories_segments":[],"categories_sizes":[],"default_left":[0,0,0,0,0],"id":94,"left_children":[1,-1,3,-1,-1],"loss_changes":[4.894494E-1,0E0,7.720868E-2,0E0,0E0],"parents":[2147483647,0,0,2,2],"right_children":[2,-1,4,-1,-1],"split_conditions":[2.9167E2,-3.422452E-2,2.822E1,3.7285622E-2,5.5325916E-3],"split_indices":[0,0,5,0,0],"split_type":[0,0,0,0,0],"sum_hessian":[4.3035774E0,1.3624958E0,2.9410818E0,1.0386933E0,1.9023885E0],"tree_param":{"num_deleted":"0","num_feature":"10","num_nodes":"5","size_leaf_vector":"1"}},{"base_weights":[2.0896513E-2,-1.9711871E-1,3.839955E-2,-3.5513993E-2,8.928124E-3],"categories":[],"categories_nodes":[],"categories_segments":[],"categories_sizes":[],"default_left":[0,0,0,0,0],"id":95,"left_children":[1,3,-1,-1,-1],"loss_changes":[4.9086586E-1,2.0992257E-1,0E0,0E0,0E0],"parents":[2147483647,0,0,1,1],"right_children":[2,4,-1,-1,-1],"split_conditions":[2E0,4.106E1,3.839955E-2,-3.5513993E-2,8.928124E-3],"split_indices":[9,5,0,0,0],"split_type":[0,0,0,0,0],"sum_hessian":[4.244661E0,2.937826E0,1.3068349E0,1.7385609E0,1.199265E0],"tree_param":{"num_deleted":"0","num_feature":"10","num_nodes":"5","size_leaf_vector":"1"}},{"base_weights":[2.1353927E-2,-3.2907557E-2,2.2513282E-1,3.3979345E-2,2.7689221E-3],"categories":[],"categories_nodes":[],"categories_segments":[],"categories_sizes":[],"default_left":[0,0,0,0,0],"id":96,"left_children":[1,-1,3,-1,-1],"loss_changes":[4.4435054E-1,0E0,7.825671E-2,0E0,0E0],"parents":[2147483647,0,0,2,2],"right_children":[2,-1,4,-1,-1],"split_conditions":[2.9167E2,-3.2907557E-2,7.713E1,3.3979345E-2,2.7689221E-3],"split_indices":[0,0,2,0,0],"split_type":[0,0,0,0,0],"sum_hessian":[4.185047E0,1.312733E0,2.872314E0,1.3609884E0,1.5113256E0],"tree_param":{"num_deleted":"0","num_feature":"10","num_nodes":"5","size_leaf_vector":"1"}},{"base_weights":[2.019965E-2,-1.8994635E-1,3.706431E-2,-3.3743054E-2,8.056699E-3],"categories":[],"categories_nodes":[],"categories_segments":[],"categories_sizes":[],"default_left":[0,0,0,0,0],"id":97,"left_children":[1,3,-1,-1,-1],"loss_changes":[4.4815233E-1,1.8149401E-1,0E0,0E0,0E0],"parents":[2147483647,0,0,1,1],"right_children":[2,4,-1,-1,-1],"split_conditions":[2E0,4.106E1,3.706431E-2,-3.3743054E-2,8.056699E-3],"split_indices":[9,5,0,0,0],"split_type":[0,0,0,0,0],"sum_hessian":[4.1293864E0,2.8677201E0,1.2616667E0,1.6957978E0,1.1719222E0],"tree_param":{"num_deleted":"0","num_feature":"10","num_nodes":"5","size_leaf_vector":"1"}},{"base_weights":[2.0672796E-2,-3.1682946E-2,2.1624595E-1,3.2638807E-2,2.7318348E-3],"categories":[],"categories_nodes":[],"categories_segments":[],"categories_sizes":[],"default_left":[0,0,0,0,0],"id":98,"left_children":[1,-1,3,-1,-1],"loss_changes":[4.0356323E-1,0E0,7.032575E-2,0E0,0E0],"parents":[2147483647,0,0,2,2],"right_children":[2,-1,4,-1,-1],"split_conditions":[2.9167E2,-3.1682946E-2,7.713E1,3.2638807E-2,2.7318348E-3],"split_indices":[0,0,2,0,0],"split_type":[0,0,0,0,0],"sum_hessian":[4.076027E0,1.2679354E0,2.8080914E0,1.3142941E0,1.4937974E0],"tree_param":{"num_deleted":"0","num_feature":"10","num_nodes":"5","size_leaf_vector":"1"}},{"base_weights":[1.9540729E-2,-1.8311056E-1,3.5795256E-2,-3.3009194E-2,6.4365393E-3],"categories":[],"categories_nodes":[],"categories_segments":[],"categories_sizes":[],"default_left":[0,0,0,0,0],"id":99,"left_children":[1,3,-1,-1,-1],"loss_changes":[4.1017208E-1,1.5963739E-1,0E0,0E0,0E0],"parents":[2147483647,0,0,1,1],"right_children":[2,4,-1,-1,-1],"split_conditions":[2E0,3.564E1,3.5795256E-2,-3.3009194E-2,6.4365393E-3],"split_indices":[9,5,0,0,0],"split_type":[0,0,0,0,0],"sum_hessian":[4.0252137E0,2.8046288E0,1.2205849E0,1.5501354E0,1.2544935E0],"tree_param":{"num_deleted":"0","num_feature":"10","num_nodes":"5","size_leaf_vector":"1"}},{"base_weights":[1.9676073E-2,-3.0593356E-2,2.0805398E-1,3.140189E-2,2.6780153E-3],"categories":[],"categories_nodes":[],"categories_segments":[],"categories_sizes":[],"default_left":[0,0,0,0,0],"id":100,"left_children":[1,-1,3,-1,-1],"loss_changes":[3.6896735E-1,0E0,6.359488E-2,0E0,0E0],"parents":[2147483647,0,0,2,2],"right_children":[2,-1,4,-1,-1],"split_conditions":[2.9167E2,-3.0593356E-2,7.713E1,3.140189E-2,2.6780153E-3],"split_indices":[0,0,2,0,0],"split_type":[0,0,0,0,0],"sum_hessian":[3.9776373E0,1.2291024E0,2.748535E0,1.272434E0,1.4761009E0],"tree_param":{"num_deleted":"0","num_feature":"10","num_nodes":"5","size_leaf_vector":"1"}},{"base_weights":[1.8579176E-2,-1.770587E-1,3.459158E-2,-3.1504277E-2,5.815592E-3],"categories":[],"categories_nodes":[],"categories_segments":[],"categories_sizes":[],"default_left":[0,0,0,0,0],"id":101,"left_children":[1,3,-1,-1,-1],"loss_changes":[3.7702176E-1,1.3995896E-1,0E0,0E0,0E0],"parents":[2147483647,0,0,1,1],"right_children":[2,4,-1,-1,-1],"split_conditions":[2E0,3.564E1,3.459158E-2,-3.1504277E-2,5.815592E-3],"split_indices":[9,5,0,0,0],"split_type":[0,0,0,0,0],"sum_hessian":[3.9309354E0,2.7477767E0,1.1831586E0,1.517929E0,1.2298478E0],"tree_param":{"num_deleted":"0","num_feature":"10","num_nodes":"5","size_leaf_vector":"1"}},{"base_weights":[1.87536E-2,-1.6702078E-1,3.313E-2,-2.9785285E-2,5.501374E-3],"categories":[],"categories_nodes":[],"categories_segments":[],"categories_sizes":[],"default_left":[0,0,0,0,0],"id":102,"left_children":[1,3,-1,-1,-1],"loss_changes":[3.3914155E-1,1.24754995E-1,0E0,0E0,0E0],"parents":[2147483647,0,0,1,1],"right_children":[2,4,-1,-1,-1],"split_conditions":[2E0,3.564E1,3.313E-2,-2.9785285E-2,5.501374E-3],"split_indices":[9,5,0,0,0],"split_type":[0,0,0,0,0],"sum_hessian":[3.8879142E0,2.7305288E0,1.1573853E0,1.5032688E0,1.2272599E0],"tree_param":{"num_deleted":"0","num_feature":"10","num_nodes":"5","size_leaf_vector":"1"}},{"base_weights":[1.8875264E-2,-2.996555E-2,2.029734E-1,3.0465698E-2,2.7604592E-3],"categories":[],"categories_nodes":[],"categories_segments":[],"categories_sizes":[],"default_left":[0,0,0,0,0],"id":103,"left_children":[1,-1,3,-1,-1],"loss_changes":[3.4517512E-1,0E0,5.7019114E-2,0E0,0E0],"parents":[2147483647,0,0,2,2],"right_children":[2,-1,4,-1,-1],"split_conditions":[2.9167E2,-2.996555E-2,7.713E1,3.0465698E-2,2.7604592E-3],"split_indices":[0,0,2,0,0],"split_type":[0,0,0,0,0],"sum_hessian":[3.8490553E0,1.1798894E0,2.6691658E0,1.2228743E0,1.4462916E0],"tree_param":{"num_deleted":"0","num_feature":"10","num_nodes":"5","size_leaf_vector":"1"}},{"base_weights":[1.7825866E-2,-1.618391E-1,3.2054845E-2,-2.7887061E-2,7.5440533E-3],"categories":[],"categories_nodes":[],"categories_segments":[],"categories_sizes":[],"default_left":[0,0,0,0,0],"id":104,"left_children":[1,3,-1,-1,-1],"loss_changes":[3.1324977E-1,1.2323684E-1,0E0,0E0,0E0],"parents":[2147483647,0,0,1,1],"right_children":[2,4,-1,-1,-1],"split_conditions":[2E0,5E0,3.2054845E-2,-2.7887061E-2,7.5440533E-3],"split_indices":[9,1,0,0,0],"split_type":[0,0,0,0,0],"sum_hessian":[3.805645E0,2.6802893E0,1.1253556E0,1.6775849E0,1.0027045E0],"tree_param":{"num_deleted":"0","num_feature":"10","num_nodes":"5","size_leaf_vector":"1"}},{"base_weights":[1.8669568E-2,-2.9048026E-2,1.9684418E-1,2.9024724E-2,3.1883668E-3],"categories":[],"categories_nodes":[],"categories_segments":[],"categories_sizes":[],"default_left":[0,0,0,0,0],"id":105,"left_children":[1,-1,3,-1,-1],"loss_changes":[3.202665E-1,0E0,4.661493E-2,0E0,0E0],"parents":[2147483647,0,0,2,2],"right_children":[2,-1,4,-1,-1],"split_conditions":[2.9167E2,-2.9048026E-2,7.713E1,2.9024724E-2,3.1883668E-3],"split_indices":[0,0,2,0,0],"split_type":[0,0,0,0,0],"sum_hessian":[3.7762249E0,1.1502023E0,2.6260223E0,1.191744E0,1.4342785E0],"tree_param":{"num_deleted":"0","num_feature":"10","num_nodes":"5","size_leaf_vector":"1"}},{"base_weights":[1.7609512E-2,-2.7726656E-2,1.8729953E-1,2.915361E-2,3.2155178E-3],"categories":[],"categories_nodes":[],"categories_segments":[],"categories_sizes":[],"default_left":[0,0,0,0,0],"id":106,"left_children":[1,-1,3,-1,-1],"loss_changes":[2.889109E-1,0E0,4.889144E-2,0E0,0E0],"parents":[2147483647,0,0,2,2],"right_children":[2,-1,4,-1,-1],"split_conditions":[2.9167E2,-2.7726656E-2,4E0,2.915361E-2,3.2155178E-3],"split_indices":[0,0,1,0,0],"split_type":[0,0,0,0,0],"sum_hessian":[3.736025E0,1.1330781E0,2.602947E0,1.0310737E0,1.5718734E0],"tree_param":{"num_deleted":"0","num_feature":"10","num_nodes":"5","size_leaf_vector":"1"}},{"base_weights":[1.6978083E-2,-1.5826117E-1,3.1248434E-2,-2.8149823E-2,5.3118966E-3],"categories":[],"categories_nodes":[],"categories_segments":[],"categories_sizes":[],"default_left":[0,0,0,0,0],"id":107,"left_children":[1,3,-1,-1,-1],"loss_changes":[2.9276747E-1,1.09079055E-1,0E0,0E0,0E0],"parents":[2147483647,0,0,1,1],"right_children":[2,4,-1,-1,-1],"split_conditions":[2E0,3.564E1,3.1248434E-2,-2.8149823E-2,5.3118966E-3],"split_indices":[9,5,0,0,0],"split_type":[0,0,0,0,0],"sum_hessian":[3.6985936E0,2.613307E0,1.0852864E0,1.4412981E0,1.172009E0],"tree_param":{"num_deleted":"0","num_feature":"10","num_nodes":"5","size_leaf_vector":"1"}},{"base_weights":[1.7240014E-2,-2.6875386E-2,1.8156193E-1,2.761591E-2,2.1642912E-3],"categories":[],"categories_nodes":[],"categories_segments":[],"categories_sizes":[],"default_left":[0,0,0,0,0],"id":108,"left_children":[1,-1,3,-1,-1],"loss_changes":[2.6804778E-1,0E0,4.7875524E-2,0E0,0E0],"parents":[2147483647,0,0,2,2],"right_children":[2,-1,4,-1,-1],"split_conditions":[2.9167E2,-2.6875386E-2,7.713E1,2.761591E-2,2.1642912E-3],"split_indices":[0,0,2,0,0],"split_type":[0,0,0,0,0],"sum_hessian":[3.665433E0,1.1056219E0,2.559811E0,1.1516848E0,1.4081264E0],"tree_param":{"num_deleted":"0","num_feature":"10","num_nodes":"5","size_leaf_vector":"1"}},{"base_weights":[1.6261863E-2,-1.5339823E-1,3.0271903E-2,-2.691863E-2,4.7995714E-3],"categories":[],"categories_nodes":[],"categories_segments":[],"categories_sizes":[],"default_left":[0,0,0,0,0],"id":109,"left_children":[1,3,-1,-1,-1],"loss_changes":[2.714938E-1,9.6214615E-2,0E0,0E0,0E0],"parents":[2147483647,0,0,1,1],"right_children":[2,4,-1,-1,-1],"split_conditions":[2E0,3.564E1,3.0271903E-2,-2.691863E-2,4.7995714E-3],"split_indices":[9,5,0,0,0],"split_type":[0,0,0,0,0],"sum_hessian":[3.630774E0,2.5719705E0,1.0588034E0,1.4193333E0,1.1526372E0],"tree_param":{"num_deleted":"0","num_feature":"10","num_nodes":"5","size_leaf_vector":"1"}},{"base_weights":[1.6562128E-2,-2.60741E-2,1.7573269E-1,2.6652966E-2,2.1924907E-3],"categories":[],"categories_nodes":[],"categories_segments":[],"categories_sizes":[],"default_left":[0,0,0,0,0],"id":110,"left_children":[1,-1,3,-1,-1],"loss_changes":[2.488849E-1,0E0,4.3317914E-2,0E0,0E0],"parents":[2147483647,0,0,2,2],"right_children":[2,-1,4,-1,-1],"split_conditions":[2.9167E2,-2.60741E-2,7.713E1,2.6652966E-2,2.1924907E-3],"split_indices":[0,0,2,0,0],"split_type":[0,0,0,0,0],"sum_hessian":[3.600614E0,1.080343E0,2.520271E0,1.123917E0,1.396354E0],"tree_param":{"num_deleted":"0","num_feature":"10","num_nodes":"5","size_leaf_vector":"1"}},{"base_weights":[1.5627876E-2,-1.4872383E-1,2.9344982E-2,6.187655E-3,-2.5683982E-2],"categories":[],"categories_nodes":[],"categories_segments":[],"categories_sizes":[],"default_left":[0,0,0,0,0],"id":111,"left_children":[1,3,-1,-1,-1],"loss_changes":[2.5223836E-1,9.635944E-2,0E0,0E0,0E0],"parents":[2147483647,0,0,1,1],"right_children":[2,4,-1,-1,-1],"split_conditions":[2E0,5.557E1,2.9344982E-2,6.187655E-3,-2.5683982E-2],"split_indices":[9,2,0,0,0],"split_type":[0,0,0,0,0],"sum_hessian":[3.568398E0,2.5340211E0,1.0343767E0,1.004679E0,1.5293422E0],"tree_param":{"num_deleted":"0","num_feature":"10","num_nodes":"5","size_leaf_vector":"1"}},{"base_weights":[1.634045E-2,-2.5592772E-2,1.7296255E-1,2.5303159E-2,2.7401147E-3],"categories":[],"categories_nodes":[],"categories_segments":[],"categories_sizes":[],"default_left":[0,0,0,0,0],"id":112,"left_children":[1,-1,3,-1,-1],"loss_changes":[2.3825434E-1,0E0,3.367933E-2,0E0,0E0],"parents":[2147483647,0,0,2,2],"right_children":[2,-1,4,-1,-1],"split_conditions":[2.9167E2,-2.5592772E-2,1.15E2,2.5303159E-2,2.7401147E-3],"split_indices":[0,0,4,0,0],"split_type":[0,0,0,0,0],"sum_hessian":[3.5491045E0,1.0645207E0,2.4845836E0,1.1265736E0,1.3580102E0],"tree_param":{"num_deleted":"0","num_feature":"10","num_nodes":"5","size_leaf_vector":"1"}},{"base_weights":[1.5355712E-2,-1.4257467E-1,2.8361915E-2,-2.5291309E-2,4.820785E-3],"categories":[],"categories_nodes":[],"categories_segments":[],"categories_sizes":[],"default_left":[0,0,0,0,0],"id":113,"left_children":[1,3,-1,-1,-1],"loss_changes":[2.3185652E-1,8.606679E-2,0E0,0E0,0E0],"parents":[2147483647,0,0,1,1],"right_children":[2,4,-1,-1,-1],"split_conditions":[2E0,3.564E1,2.8361915E-2,-2.5291309E-2,4.820785E-3],"split_indices":[9,5,0,0,0],"split_type":[0,0,0,0,0],"sum_hessian":[3.5181358E0,2.5093653E0,1.0087706E0,1.3835386E0,1.1258266E0],"tree_param":{"num_deleted":"0","num_feature":"10","num_nodes":"5","size_leaf_vector":"1"}},{"base_weights":[1.5697831E-2,-2.4856672E-2,1.67597E-1,2.5230888E-2,2.2684275E-3],"categories":[],"categories_nodes":[],"categories_segments":[],"categories_sizes":[],"default_left":[0,0,0,0,0],"id":114,"left_children":[1,-1,3,-1,-1],"loss_changes":[2.2197774E-1,0E0,3.6625125E-2,0E0,0E0],"parents":[2147483647,0,0,2,2],"right_children":[2,-1,4,-1,-1],"split_conditions":[2.9167E2,-2.4856672E-2,7.713E1,2.5230888E-2,2.2684275E-3],"split_indices":[0,0,2,0,0],"split_type":[0,0,0,0,0],"sum_hessian":[3.4920702E0,1.0423181E0,2.449752E0,1.0782993E0,1.3714528E0],"tree_param":{"num_deleted":"0","num_feature":"10","num_nodes":"5","size_leaf_vector":"1"}},{"base_weights":[1.481043E-2,-2.3733376E-2,1.5963568E-1,2.4112156E-2,2.1381322E-3],"categories":[],"categories_nodes":[],"categories_segments":[],"categories_sizes":[],"default_left":[0,0,0,0,0],"id":115,"left_children":[1,-1,3,-1,-1],"loss_changes":[2.0087035E-1,0E0,3.351757E-2,0E0,0E0],"parents":[2147483647,0,0,2,2],"right_children":[2,-1,4,-1,-1],"split_conditions":[2.9167E2,-2.3733376E-2,7.713E1,2.4112156E-2,2.1381322E-3],"split_indices":[0,0,2,0,0],"split_type":[0,0,0,0,0],"sum_hessian":[3.46324E0,1.0304474E0,2.4327924E0,1.0625136E0,1.370279E0],"tree_param":{"num_deleted":"0","num_feature":"10","num_nodes":"5","size_leaf_vector":"1"}},{"base_weights":[1.4005394E-2,-2.2655342E-2,1.5208295E-1,2.3315737E-2,1.4026044E-3],"categories":[],"categories_nodes":[],"categories_segments":[],"categories_sizes":[],"default_left":[0,0,0,0,0],"id":116,"left_children":[1,-1,3,-1,-1],"loss_changes":[1.8183164E-1,0E0,3.4978777E-2,0E0,0E0],"parents":[2147483647,0,0,2,2],"right_children":[2,-1,4,-1,-1],"split_conditions":[2.9167E2,-2.2655342E-2,1.15E2,2.3315737E-2,1.4026044E-3],"split_indices":[0,0,4,0,0],"split_type":[0,0,0,0,0],"sum_hessian":[3.4369502E0,1.0196851E0,2.4172652E0,1.0889348E0,1.3283304E0],"tree_param":{"num_deleted":"0","num_feature":"10","num_nodes":"5","size_leaf_vector":"1"}},{"base_weights":[1.3149342E-2,2.3763014E-2,-1.3787214E-1,-3.92047E-2,2.1362746E-2],"categories":[],"categories_nodes":[],"categories_segments":[],"categories_sizes":[],"default_left":[0,0,0,0,0],"id":117,"left_children":[1,-1,3,-1,-1],"loss_changes":[1.8233402E-1,0E0,3.7593395E-1,0E0,0E0],"parents":[2147483647,0,0,2,2],"right_children":[2,-1,4,-1,-1],"split_conditions":[3.578E1,2.3763014E-2,9.375E1,-3.92047E-2,2.1362746E-2],"split_indices":[2,0,2,0,0],"split_type":[0,0,0,0,0],"sum_hessian":[3.411952E0,1.1415893E0,2.2703626E0,1.2506456E0,1.019717E0],